short,0,1,2,3,4,5,6,7,8,9,10,11,12,13,14,15,16,17,18,19,20,21,22,23,24,25,26,27,28,29,30,31,32,33,34,35,36,37,38,39,40,41,42,43,44,45,46,47,48,49,50,51,52,53,54,55,56,57,58,59,60,61,62,63,64,65,66,67,68,69,70,71,72,73,74,75,76,77,78,79,80,81,82,83,84,85,86,87,88,89,90,91,92,93,94,95,96,97,98,99,100,101,102,103,104,105,106,107,108,109,110,111,112,113,114,115,116,117,118,119,120,121,122,123,124,125,126,127,128,129,130,131,132,133,134,135,136,137,138,139,140,141,142,143,144,145,146,147,148,149
DnB,0.12718907152062522,-0.0071288009020622455,-0.2656441997422705,0.2041669239690709,-0.05833763756443369,0.05517390077319699,0.09608240141752697,0.10330643524484714,-0.07370045650772998,0.05324478221649557,0.2676393952963912,-0.12421369619845227,-0.18521174291237388,0.06749225676546328,-0.10722436469072057,0.10325536469072219,0.00606336404639082,-0.043613263208762625,-0.2873645953608256,0.21622585599226388,0.013815116945876175,-0.04254859632731926,0.08060032409794013,0.2369543485824832,-0.09893657216495069,0.16047141591494724,0.013103892074742447,0.06681005670103107,0.036416695876288575,0.13078152416237143,-0.17107775193298916,-0.13926076900773685,0.06225417171391742,-0.05473534471649544,0.023850782538659493,-0.17917270715205807,0.04128316108247569,0.11995279059278345,0.316271839884012,-0.29811320844072,-0.17453361501288986,-0.21878895844072438,0.4461300170747286,0.03678915786082457,0.08384002319587529,-0.26206308601803785,0.048348216817010035,-0.2786031923324772,-0.07645297422680408,0.3206708083118477,-0.18161837628866254,-0.14849386372422602,0.18298216817010493,-0.28256285405927034,0.00922424259020508,0.011203175257732659,-0.13018969297680566,-0.1250144816365951,-0.014818985180412143,-0.2864825641108224,0.09904353447164668,0.31141449291237133,-0.15205300418814588,0.07751466494845621,-0.30701840431700733,-0.06355554059278322,-0.0393795824742235,-0.04546992557989811,-0.024620135309277962,0.2170955931056652,0.12158546907216262,-0.06071655960051676,0.004974361469072142,-0.26584056443298865,-0.06438513112113325,0.16157807119845177,0.20603232828608753,-0.023423633054124354,0.031886121134022574,-0.07377611018041196,-0.230718251932996,-0.1036539545747396,0.032395824742267446,0.21452316591494808,-0.09754712822164702,-0.27266505960051124,-0.009511276417526233,0.1583236266108262,0.1357458733891776,-0.00806303221649564,-0.23122132152061184,0.1282315989046375,0.11010497712628495,-0.05297275579897083,-0.22918994265464282,-0.025324954574742375,0.005008682667525426,-0.19595588402061914,-0.062124401417525905,0.2350303005798936,-0.13682333634021235,-0.06223965367268163,0.17020298518041285,-0.050070024484537484,0.0595195228737108,-0.03202263949742224,-0.23322260051546237,0.13084655734535983,0.006808859213917496,-0.2311285827963985,0.1090416095360828,0.07486330444587673,0.0623178807989704,0.08920570779639198,-0.20123383923969648,0.04566566076030902,0.12093909181701092,0.1442467847938103,-0.08125073775773294,0.31972067590206193,-0.0756640209407216,0.0763726781572181,0.023401375000000422,0.30288131056700146,0.01410677802835086,0.3029019916237109,-0.10956226320876178,0.04450287306701066,-0.3912097100515541,-0.007878246134020689,0.29994328898196243,0.01794934793814354,-0.004366265141753436,0.03100327609536036,-0.14044989432989222,-0.13565552706185952,-0.44606220393040547,-0.17080421166236853,0.19236034020617754,0.19219584407216742,0.27493772583762344,0.1594223205541245,0.21366180927835085,-0.04305299613402023,-0.15014849516752493,-0.08439187628865853,0.023097836984535623,-0.06827918073453491,-0.06693521327319997,0.14727009793814166
Europe,0.03336865192519195,-0.09529232387238623,-0.13605667766776447,0.184113560616063,-0.04034101848184879,-0.01976514983498339,0.12156507854785512,0.2348822125412538,-0.06701142376237668,0.07892806138613846,0.3656113276127676,0.017198542794279435,-0.05822657689769037,0.11176826160616013,-0.0006124002200219722,0.09981463476347745,0.059959998899889747,-0.13748413509351062,-0.17028077733773053,0.0955387003300323,-0.007414579317932034,-0.01382324224422516,0.1292559049504953,0.14712265654565662,-0.17016513575357436,0.06684048426842727,0.06576575819581643,-0.020102499229922556,0.06891744070407169,0.04498290099009979,0.028263802200220584,-0.12903131441143884,-0.04114070847084746,0.10846363322331977,0.09999814895489571,-0.1421562785478546,0.061480730693071056,0.008432382178218012,0.227607791419143,-0.09905223476347809,-0.15021543828382908,-0.09571385874587386,0.27842629746974784,0.009627182398239696,0.06358166908690879,-0.08540272035203494,0.017494936193619443,-0.034443122552255234,-0.01117486006600649,0.03640467766776779,-0.11613375885588534,-0.0750873865786581,0.08477132673267265,-0.02515685676567602,0.04814690407040739,-0.1023489410341034,-0.03535160968096748,0.003404960836083761,-0.08666533003300354,-0.19656015709570546,0.0020729918591850596,0.18025376413641203,-0.12772356919691863,-0.1498135815181511,-0.19080249372937236,-0.020965732453245723,-0.0352609872387238,-0.04994740440044104,0.1838202231023106,0.1259263174917485,-0.03334922464246435,-0.08416280176017622,0.051383623982398735,-0.11645569592959285,-0.06259991353135373,0.1249097049504942,0.11185878349834993,0.01693940550055002,-0.002439000440044285,0.07628031793179339,-0.1815629669966943,0.014413007260726068,0.06028926182618322,-0.10327699779978156,-0.004688194499450085,-0.13972718811881088,0.1509516774477472,0.15927987128713209,0.1837379843784402,0.02319451463146313,-0.1788683342134229,0.067096464466447,0.11438971617161765,0.06861810583058175,-0.1367509148514845,-0.09582091617161681,0.06446872937293756,-0.17091896149614966,-0.05147741276127651,0.15829041188118728,-0.07014494565456543,-0.11187353135313433,-0.01344637821782119,-0.1327578921892202,0.21633216479647757,-0.08328238305830574,-0.09441820374037477,0.04926587348734972,-0.15818095973597715,-0.29390373663366004,0.045529588998899945,-0.046454989438943946,0.0633780160616066,-0.015843851925192505,-0.1917324327832773,0.04247940396039616,-0.06095007876787609,0.0579786413641368,-0.11585166380638293,0.10633009790978994,-0.11124975489548804,0.08198573003300355,0.05749135467546821,0.1349653672167213,0.11940164862486233,0.04182774257425778,-0.012559224202419537,-0.0027806673267326055,-0.215004756435642,-0.061773014301430416,0.17439399317931714,-0.04721904774477502,-0.0007504572057211606,0.1339455069306923,0.037065346094608535,-0.05069605808580879,-0.22269720594059364,-0.18464736391639047,0.14711508822882519,0.0545016424642465,0.07979648668866904,0.013878329812981252,0.08529610803080329,-0.18420716303630705,0.13817526952695178,-0.09524017931793334,0.018129171397140178,0.07092071309130882,-0.10778986314631527,0.06525504730472836
J-pop,0.027478651991613163,0.07819480153738607,-0.06515455345911951,0.02145951781970501,0.09634979664570098,0.045647128581411386,0.21551381167016498,0.2473840870020985,0.03630556918238993,0.0656809081062173,0.3603215471698131,0.07125335814116056,-0.05026830747728888,0.12340776380153617,-0.056922668413695525,0.09631017714884663,0.03397161250873595,-0.128150271837878,-0.09802491404612229,0.0075555824598183986,0.0345363214535284,-0.0448780621942699,0.20799054402515935,0.044335027952480205,-0.23276615967854794,0.12825875681341764,0.002058084905660539,-0.03424492662473752,0.01497756324248826,0.30435664919636807,0.044844739692521826,-0.19559615094339294,0.05667500733752641,0.14877277638015046,0.07473498951782061,-0.25784395283019224,0.12603331830887712,0.16672692941998254,0.3661527030048994,-0.25507953703704433,-0.23602714744933426,-0.07248575157232767,0.45043273410201734,0.03061278791055064,0.09707368308875096,-0.021146081411600307,-0.06761005730258599,-0.04191022152341038,0.056103706498953305,0.08468821278826247,-0.03748610936408066,-0.14560025262054774,0.055319654786861544,-0.0413681477987412,0.09814568343815339,-0.14772952410901738,-0.0518806967155829,0.1013437141858834,-0.023572125087351303,-0.20183101048217922,-0.007375472746330799,0.14646838469601972,-0.1922787078965784,0.031609803983227505,-0.24422300419287318,-0.08412935744234663,-0.008654168763102833,-0.01198300279524848,0.1727656977638046,0.16211431132075432,0.06469775192173112,-0.020162595387840685,0.016957136617749818,-0.2457072613556891,-0.015371152341020211,0.08343784626135554,0.15693776205450607,0.006963812368972482,-0.11303395422781255,0.111029074074075,-0.1598735719776351,-0.05815028791055135,0.05792372257162802,-0.09293190006988208,-0.00484626694619138,-0.23648793815513527,0.015818084556254126,0.15687121977637747,0.2947222225716356,-0.024357704053109466,-0.10666150104821895,0.06387888469601549,0.10253735464710217,0.23146354961565063,-0.10626633822501877,-0.11687238679245386,0.11941080503144672,-0.2987045303983274,-0.08336103284416393,0.17651625331936296,-0.14568582285115084,-0.09165379315164308,-0.06511393221523368,-0.20316709224318927,0.29178183647798395,-0.04662553633822592,-0.05007427812718395,0.17032573235499246,0.07034023654786815,-0.22197169217330434,-0.0178849654088053,-0.07391384171907855,0.09009481376659782,0.0700559409503833,-0.1198563941299809,0.0967853476589783,-0.01789384870719723,-0.021211234102026556,0.011577193221523065,0.11054443221523359,-0.05411608805031145,-0.019106859189377774,-0.0165267690426273,0.17463336408106458,0.14197918658281208,0.004578598881900877,0.0259680541579315,0.03194446226415215,-0.1790131582809231,-0.09132167714884619,0.4044524419985977,-0.15723390705799867,-0.021492791055206767,0.3136195087351477,-0.014495577218727738,-0.04137783542976891,-0.32429936477987376,-0.16157312858141187,0.08441480852550697,0.029620002795248037,0.2146251303284415,-0.0687557931516421,0.07642156359189206,-0.19338108665269282,0.06824271593291592,-0.12735678965758315,-0.01525362928022288,-0.09595554227812708,-0.17621123654786577,-0.01624221767994338
K-pop 1,0.08198323059501068,-0.007501418502506499,-0.194454640312952,0.06367225605655093,0.09098137711894048,-0.0374051478278786,0.2362137018735987,0.33658287159427513,0.04258221453572139,-0.0038186451170146344,0.42190061251804256,0.1081529695285213,0.0006808459268408878,0.05474708942419333,0.00779093548829841,0.1267563414316188,0.017923218722123525,-0.1721617993274357,-0.24653944025802466,-0.03718575897330086,-0.05173052515269753,0.14493576213025544,0.16262982657330963,0.08749920671196926,-0.335394991146782,0.15312022071236794,0.03250423601674614,-0.0024509955390836003,-0.049293910644430186,0.20685067140208846,0.24146696163613765,-0.04749393315489155,0.03337722929105754,-0.04133570743256953,-0.07762792258596225,-0.17403220540800743,0.11671800253927389,0.13126372074669204,0.234691929174355,-0.1880889457827087,-0.3755929516161997,0.05253107700226459,0.42751131219551614,0.00192935083384956,0.1612923241369772,-0.22485411378765685,0.06952624768375994,0.05080395497906347,-0.023154341088462642,-0.07283720568251127,-0.2535515453297543,-0.06901384819161138,-0.055535321872210365,-0.02509334685334856,0.18957556351657662,-0.17160833230390024,-0.0007470850319128066,0.061495471004041104,0.03660499842153515,-0.08324050881887066,-0.0040438394756703985,0.10482176336558834,-0.25597781202385606,0.08085311996431045,-0.25508356886968886,-0.20708771285428781,-0.03112214597488067,-0.056843145082700004,0.11130756495777554,0.08252843298332517,0.08682529037129212,-0.0977011555830063,-0.05301567208839631,-0.2231900410404378,-0.09820270791298343,0.08017674833573575,-0.006080609017909845,0.0262958655548714,-0.09729076473818313,0.11937266083316866,-0.1686019172328698,0.009471886830004722,-0.025059020382952074,-0.16550804371698863,0.0259451127582197,-0.2031414158945832,-0.0034438061217489818,0.16857027822386678,0.2756691494749697,0.08738911303274476,0.012604390844826556,0.018544092581148565,-0.05068068183378283,0.27719352968225935,-0.010723254134925373,-0.1533761338274721,-0.009058490975225297,-0.19906499629403399,-0.07088682190652679,0.23709695539084494,-0.07041018118179833,-0.1941746482053168,-0.18517639667833236,-0.275343951959389,0.34687265108773624,-0.0845072603115823,0.03118176665980107,0.08448417136777459,-0.07917048315146635,-0.017548426875297604,-0.04455066076453338,-0.2515072246242607,0.0051060302655957495,0.008920877359136799,-0.24090221240820883,-0.02130774867888149,-0.09782529606751582,-0.019437458719377663,0.01133185450552356,0.17136636531463806,-0.07882048315145385,-0.07792034712786407,-0.09392962727334933,0.22200587962391793,0.16195245515065002,0.04208765602909629,-0.04519469974607088,0.04313917404433356,-0.27271733861777886,-0.1350509023402605,0.3240709840779904,-0.14711490879143935,-0.09589813918055864,0.12884359426259326,0.06363260071375619,0.0118707700226482,-0.4636322815866761,-0.22887105709971908,0.03687218516230969,0.0827367744149457,0.17866580056274967,-0.09856655459473748,0.08289864751904631,-0.3318938550545177,-0.00892717411296119,-0.0781339186740727,0.006724449248497084,-0.03366343538535825,-0.18743899951958434,-0.0263041360922416
K-pop 2,0.07356950511535118,0.04889236690070162,-0.2691675135406292,-0.006507185356069648,0.16754174222667173,-0.040313391975926906,0.3607704738214752,0.41572752978935185,0.10235490150450975,-0.06828677933801769,0.4865911506519675,0.18099746760281227,0.05573280441323698,0.03302026880641804,0.03411213420260767,0.14612202487462903,0.02488540621865605,-0.20817305115344226,-0.3386752298896441,-0.09824242567702536,-0.10602023610832412,0.24866136850551765,0.2362187602808512,0.06432280822467351,-0.47624670090272386,0.22164898716148018,0.014701388164493887,-0.033379293881643735,-0.11904054483450731,0.31815635546637844,0.35823940381143654,-0.025196660381143664,0.05515833179538473,-0.17281116950851758,-0.1978739656970953,-0.2522607853560806,0.17989597051153403,0.19929597452358458,0.22979331053160273,-0.26463367281844347,-0.5283359731193676,0.15581071093279636,0.5479648068204787,-0.04825521203610878,0.268226271815462,-0.28970883991977003,0.08637676128385523,0.10463923069208025,-0.07117314062186288,-0.15215367342026037,-0.4173403291875318,-0.07265933019056946,-0.15230394744232192,-0.013277623871612073,0.253953285656959,-0.19548445737211848,0.028733035506517308,0.10882301705114779,0.09005346419257278,-0.030506414844536048,-0.006830237311935704,0.04125851474423403,-0.3812615937813348,0.23360327582746987,-0.3719809871614888,-0.358934931193603,-0.05435492196589901,-0.055530430692073564,0.0786334878635986,0.08464296670010239,0.16575254242728585,-0.12569297251755437,-0.1131871632898628,-0.33983415205618106,-0.1770176778335079,0.08653201323971418,-0.06129620341022996,0.04535124914744274,-0.18078080802406493,0.1960186298896709,-0.2025337957873475,0.043563385957873506,-0.06461251334001705,-0.2529980716148442,0.03282138134403252,-0.20840679438315982,-0.12734067201605168,0.19637473721162788,0.37085741444333775,0.19749292517553682,0.08501059679036492,-0.0018792623871606846,-0.1733970421263921,0.4303326463390327,0.059088195787364815,-0.1952514397191491,-0.03594735747241711,-0.2413855614844582,-0.07948103610832126,0.3083260445335949,-0.1293974170511442,-0.2773126583751198,-0.2993629327984021,-0.4017286228686048,0.4256904461384098,-0.09885978134403021,0.10458639358073804,0.07756815967903587,-0.026755545436307707,0.12412049729188272,-0.08916859277833812,-0.38437584092277394,-0.029691041925773525,0.0520868272818447,-0.29010545837514107,-0.10590812196589831,-0.16004543329988458,-0.017355880842526993,0.09291192417251556,0.22082116670008528,-0.032646844132395055,-0.16671200641927328,-0.18234692698096117,0.31194098014040317,0.1851734449348026,0.010949216248747154,-0.045704558475428564,0.07489244954864492,-0.36987515787361597,-0.16059053340020826,0.4633212485456249,-0.2135051301905779,-0.17853217392174928,0.0966255568706117,0.08745225977933653,0.01423950531594887,-0.6855966351052983,-0.32465133400199403,-0.023574904513538844,0.1096192401203668,0.25137657151455084,-0.21651029528586396,0.06368414082247052,-0.4569184828485208,-0.09600406880641771,-0.05987918375125313,-0.025267832497493606,-0.05242452537613323,-0.2640650132397296,-0.15352219237714118
Philippines,0.00017298924731181444,0.0028547526881719494,-0.116285817204301,0.007134634408602254,0.17307036559139805,0.08269784946236576,-0.015235435483870945,0.4490659247311823,0.0665711451612901,-0.10589282258064503,0.3509218548387098,0.08372189784946252,-0.13370356451612933,-0.08752832258064518,0.045216720430107396,0.27435006451612937,0.06411463978494619,-0.23308674193548368,-0.04082229569892499,0.013901747311827965,0.01015977419354843,-0.12662245698924698,0.08569884946236568,0.20300823118279537,-0.04848734408602149,0.05838749999999991,0.01673252150537641,0.010163645161290332,0.18412361827956975,0.21593632258064524,0.20306949462365648,-0.17457865053763402,-0.17525180645161234,0.058963021505376315,0.09993551612903195,-0.39757239247311776,0.14767343548387105,0.07314687634408602,0.44303706989247366,-0.06472385483870967,-0.385130897849463,0.14320878494623682,0.31064056451612915,-0.011498564516128983,-0.039307747311827866,-0.1246466720430107,-0.03077202688172038,0.03102270430107523,0.0058033333333333504,-0.25503641935483884,-0.31046250537634495,0.010817967741935528,0.05383007526881735,-0.2459605860215051,0.39429251612903315,-0.16044495161290298,-0.1599633279569888,0.17696892473118217,0.0058531505376344505,-0.28262813440860307,-0.10826661827956968,0.20580961827957064,-0.15975497311827913,-0.18056098924731226,-0.3134453655913986,-0.023344822580645172,0.10133985483870986,-0.1304605537634406,0.3465956505376352,0.027108069892473146,-0.11369589784946223,-0.2932845645161292,-0.09683721505376358,-0.275932155913979,0.05589095698924711,0.1977168118279567,0.03748114516129033,-0.008176510752688219,-0.10811493010752671,-0.11922867741935467,-0.2335963924731178,-0.07820888172043024,-0.06954855913978479,-0.09559718279569868,0.06016753763440873,-0.3797521075268826,0.1333924838709679,0.007681403225806426,0.266376435483871,0.14411636021505383,-0.27798601075268853,0.14982690322580597,-0.006134252688172054,0.2313917526881713,-0.015240172043010728,-0.143627048387097,-0.006768672043010739,-0.0703277096774193,0.16752975806451562,0.24518538172043045,0.08633673655913965,-0.21298523118279533,-0.05907394086021485,-0.23980361290322627,0.2085981344086025,-0.3062322795698927,-0.04921033870967736,0.26637438709677386,-0.062440381720430024,-0.2711350645161288,-0.06454100537634419,-0.3158450053763447,-0.13719288709677446,0.039182618279569884,-0.05000807526881749,0.14672828494623683,-0.027710118279569845,-0.09774219892473102,0.007851672043010797,0.12047388172043008,-0.24342722043010775,0.0854597956989249,0.02300193010752689,0.04287838172043002,0.19597680107526835,0.05868765591397849,0.057051634408602045,-0.041873908602150525,-0.2716032849462373,-0.16566980107526919,0.3645083817204304,-0.1835334569892468,0.1170572580645165,0.3192937849462359,0.2422922096774199,-0.16431474731182755,-0.353886155913979,-0.16130481720430137,0.14504729032258107,0.32861520967741986,0.09643081182795674,-0.16907949462365568,0.13083117741935463,-0.14185555913978487,0.1085565698924731,-0.2050895537634407,0.08527777956989221,-0.027342403225806437,-0.1160678602150536,0.1266008010752687
RuPaul,0.055674499518767025,0.041302512030799134,-0.286543931665061,0.28943004908566183,0.007433090471607181,-0.0468590442733398,0.12782525601539954,0.30022933974976074,-0.09690088450433063,-0.01863503464870089,0.48448345043311264,0.033077681424446614,-0.07029315591915307,0.09025834456207814,0.027138715110683255,-0.07879729643888271,-0.04184843503368609,-0.42519849951877,-0.13653935707410916,0.16369030125120398,0.06704937343599622,0.05130438883541881,0.06922924639075971,0.2818608960538989,-0.31016991722810633,0.07877744850818104,0.10762911742059753,-0.14672849470644797,-0.05544754860442655,-0.033193688161693935,0.2342829143407091,-0.07271633012511979,0.0102236467757459,0.20680901539942076,0.2518540577478338,-0.1386801520692983,0.1097952213666995,-0.057826478344562525,0.24812772281039516,-0.11163571511068324,-0.1676899133782465,-0.09644195861405086,0.30015825216554104,-0.10157179980750805,0.01721891049085663,-0.11407975360923941,0.16853072088546783,-0.09179138594802752,0.13960404042348393,0.1666810134744958,-0.20478897786332964,0.05183162271414811,0.07148580558229095,-0.03047968816169351,0.18417688257940257,-0.2792892021174182,0.19669922906641046,0.13180883638113652,-0.09053866794995184,-0.1454144369586134,0.05181685370548535,0.10744660153994375,-0.10055300481231849,0.00944921751684337,-0.19214991434071427,0.10406707892203983,-0.0004545264677574558,0.03506917998075091,0.3392548084696788,0.05333514244465844,0.1458513926852761,-0.05016430028873916,0.006215845043310912,0.021313208854667365,-0.07720651588065405,0.05207613474494679,0.2850526448508164,0.06865373724735345,0.10294741674687284,0.10828371607314674,0.013253505293551286,0.015989067372473364,0.019669106833493603,-0.28709366602502234,0.02353927237728607,-0.3085622521655423,0.010377457170356267,0.10612957170356152,0.3492104446583258,0.024979974975938634,-0.22335671414821892,-0.0020988315688158124,0.027431084696824523,0.22419088739172124,-0.2094823772858514,-0.18381011068335007,-0.032670330125120176,-0.24975054282964246,-0.17582867757458967,0.2096339846005757,-0.04303716650625585,-0.13537116554379253,-0.08645056496631402,-0.32452608469682254,0.3661375332050086,-0.16811252550529363,-0.05156254667949867,0.09862619345524497,-0.20264863330125224,-0.18507737536092522,-0.1469767959576527,-0.07416261886429187,-0.09721725697786412,-0.05803623387872937,-0.24506353031761222,0.026858025024061708,-0.0030217613089510427,-0.31208964196342437,-0.08231182098171422,0.13171649085659415,-0.218398560153995,0.09780778537054884,-0.1389050423484124,0.20855805871029842,0.18042611645813436,0.07504620307988424,0.19700964966313703,0.05003204234841197,-0.17046046198267575,0.0075599210779595935,0.10907127045235886,-0.05465485370548569,0.01882658999037524,0.2485205332050061,0.028530371511068096,0.018458038498556217,-0.30761821270452666,-0.08410062367661152,0.013348598652550758,0.14937512608277273,0.29366655534167524,-0.07770802791145238,0.2129330587103009,-0.39369923869105067,0.1580887564966327,0.1858400808469696,-0.011576954764196519,0.13329196631376233,-0.08146716169393801,0.010040160731472469
alt. metal,-0.03240509414131371,-0.014694188528965854,-0.05800779250318522,0.033606211807687185,-0.12355604331404366,-0.015679536190827965,0.13808868308904815,0.07416389666215256,-0.0018853438026025175,0.0406203793570612,0.2771682159543111,0.029372747752187577,-0.11326283474975343,0.1590499504865115,-0.014383524695161808,0.08515337549780978,0.008517314037040419,-0.09719122400131087,-0.1167706931888342,0.03490344841318916,-0.029353079484337588,0.04045814977213438,0.07501872981072685,0.09073419899824268,-0.1326699467504206,0.09734587629838916,0.050129668308910164,-0.030794752555732306,0.047299662643185234,0.11499590725460464,0.03411318758467913,-0.07108728550313483,0.003187526173173518,0.08200683162950544,0.10137810785399884,-0.10512246594408242,0.02347550026684826,0.043533742004346176,0.2706565205485213,-0.10079728078169854,-0.07423769281930993,-0.1598252517551584,0.3797860610912844,0.0013128634889354356,0.04167721324464848,-0.03569319780761867,-0.00941444829002165,-0.06787947152769142,0.03211524280494943,0.1833669528267015,0.05776490589973575,-0.03560287876175099,0.039991809951969555,-0.08117800028737518,0.14869045017858964,-0.20358814628239996,-0.013798944820785157,0.008049879377590063,-0.1143231312148466,-0.24789706129651462,0.07635955967483372,0.2524729721230071,-0.10067475834462826,-0.1663886633411466,-0.21163861050213192,-0.1097830235661223,-0.043658153056618944,0.04007334601962445,0.1587735658742921,0.14304924818326809,0.08024112776613807,-0.11163196736051331,0.08344212292154227,-0.0787059970439741,-0.08869993032804066,0.06941108531428301,0.0644883000369513,0.06778542505234121,-0.0184074489058563,0.06006483692572786,-0.24147056727017455,0.010125464917682249,-0.033778989161225105,0.014213029067618186,0.032051891242770844,-0.16700305792997402,0.1782981140534355,0.20795972976970153,0.21401017658169524,-0.03821982444472118,-0.11957186484377859,0.07243672480189184,0.13009543030749404,0.18549719932669836,-0.10388174516566026,0.021819698731375483,-0.01665972398078862,-0.23954695919038352,-0.11814264531758033,0.176675933982,-0.014117370612144168,-0.14563585076159205,-0.032536189226916395,-0.07603056636696229,0.26207099942523,-0.040742268259639204,-0.018891662889518508,0.10345673609229358,-0.14651268530607398,-0.27155780757072245,0.07111365857863909,-0.014039128258812922,0.12633698099110144,0.058658962023240856,-0.16395481701359937,0.0910745951882446,-0.061629084041549397,-0.02599549554542959,-0.0923704185244441,0.08673207603561571,-0.08243756837869784,0.03742400270969261,-0.04958532183766476,0.13734060688919297,0.06027201436958838,0.16312515695693158,-0.0902435601675076,0.03213924346183712,-0.1565126116106354,-0.03713363127643266,0.25522161107692115,-0.07733276364084606,-0.004161870386342521,0.1548588859054932,-0.0012643594038658863,-0.09027344200845204,-0.14166800398242796,-0.17315626809541967,0.19849540690560497,-0.07257160799769927,0.052713487046837613,0.003026125179622542,0.10437774791641746,-0.17582356439627495,0.18997111532619732,-0.1477886380917083,0.023003933940962114,-0.0522991968222684,-0.11728209910908119,0.07866949952784932
culture,0.06835635424263156,-0.06346159774126607,-0.10074235389356127,0.11003079516234351,-0.026542545377577876,-0.054919030925748735,0.06301165879234594,0.20005309429858142,-0.028599548351870428,0.09259967829547285,0.30391914644590584,0.021201991160818303,-0.05374597248472925,0.08966334372653456,0.009171249488844,0.06902413190870525,0.010537951103760358,-0.08800557857954448,-0.13700355765389446,0.057064786387639725,0.04185706212087834,0.036919605431034994,0.056890552926974924,0.10000609493208357,-0.1380414690382131,0.06603572933125851,0.05507163729003906,0.03623246579080713,0.04473178607278038,0.04582991750352499,0.0884412846975363,-0.09689087728710809,-0.0094626253475946,0.11154113125230432,0.07278585623237772,-0.07409510757248633,0.02131604375584514,0.05725797269336543,0.22891013634730423,-0.11846824075582833,-0.19387359418659852,-0.12333524923845532,0.2557373274253563,0.05808737918960533,0.046529250349972275,-0.16613719841874056,0.017146231503154655,-0.012505957188760927,0.048070347865516935,0.037353591030308636,-0.0476227670780732,-0.07660002294394634,0.07491564382258957,-0.015203170334508574,0.09700767742669995,-0.11877109778107901,-0.015131043327185055,-0.024315162853416342,-0.04531258052572891,-0.15417250579481617,-0.004787727396543039,0.13895155332148157,-0.07130514101723308,-0.11235067641001556,-0.10782371264685763,-0.036587122056607836,-0.003701643192877035,-0.039529511663562514,0.12251705282261711,0.07453462836733588,-0.04634562177398228,-0.04822988069375673,-0.013438092610360873,-0.07216441449704293,-0.029605614243603855,0.06891022572165409,0.04543729719765352,-0.0165715313412297,0.036169945075668085,0.05506432278197506,-0.14816986165721213,-0.008898097083072404,0.06286727467858672,-0.06595449463002108,0.007634837772522936,-0.16487382950989699,0.1346387429051023,0.13051588268161954,0.14565193902108228,-0.03747930541086369,-0.10485489804967864,0.010791931384366833,0.12593766445989343,0.06946728179913411,-0.08180591030694441,-0.06451761456227013,0.011629949741851157,-0.14593423231118055,-0.06298003300082944,0.14118820504632945,-0.007850577206288784,-0.08385997325864775,-0.03817731143896599,-0.09053542676564408,0.21245686967312163,-0.08277606451843247,-0.044396550806351034,0.0728512194356261,-0.1321377059397731,-0.20724980554941,0.04211988605418782,-0.08948712401787512,0.05474862952057643,-0.06608894801572228,-0.15565443241070406,0.08618677668721914,-0.016034641842343104,-0.027010876475243705,-0.10053229160955417,0.07419720238695202,-0.10863612124861804,0.028825731338135974,0.022559938611306857,0.11528596735960538,0.1103092713666958,0.09346832896186277,-0.05262622561912703,0.013766877378074202,-0.15673386325822833,-0.09973900221168568,0.11585604826265024,-0.05179737061597808,0.014248025736081655,0.14284523853663184,0.0334361149245499,0.0015003676303925724,-0.1316894760527441,-0.10113155167503371,0.1151178339030232,0.04491927344566241,0.047118836744439195,0.05749671979789102,0.09310836502419802,-0.16979753027518377,0.1422054379531455,-0.07237100480272624,0.04966825675742122,0.0005941886425502487,-0.0820468101131477,0.1406381125876406
culture 2,0.060870845685477994,-0.04804983187318164,-0.10612738478278247,0.12157204107611985,-0.004612241326436713,-0.025435144606433584,0.07448134389835791,0.2185987631047908,-0.0330450343898482,0.06461566653137756,0.30908562807115786,0.012748097092086796,-0.054256191906542996,0.10126103605859516,-0.017235309970799844,0.08963851300612993,-0.011948328811910292,-0.10059567188717905,-0.1530878155802418,0.06770663562562261,0.03957176752471939,-0.003591264080094691,0.08921111300161802,0.11623262951438433,-0.2383038045642561,0.09781330211188904,0.05189427855764947,0.03424356142250225,0.07429548052181977,0.06519812780614159,0.08216388181172746,-0.1228101791653976,-0.02180606786636404,0.1087866655391378,0.04243859750363866,-0.08820929947343804,0.024490507221854883,0.0558292510570718,0.27813595519172946,-0.15072853462098562,-0.21356506830610278,-0.09145108148702079,0.30352750359117137,0.08535937708171369,0.08783686808961787,-0.13837845145397332,0.028333830441205198,-0.017972213904765992,0.033604372797074296,0.05087736659563437,-0.11541014059241095,-0.10895159220422396,0.08925196329873007,-0.02266749060199542,0.13420242826054143,-0.15938418142047245,-0.004411784054388064,-0.02689138823304049,-0.052034080314360916,-0.17072570345815744,-0.011638198367321148,0.1568877332138288,-0.09966726499340016,-0.11030492153479872,-0.13218016142925673,-0.0013725044142983778,-0.012694770411212137,-0.014103706671627112,0.1459720078476344,0.10708668963456078,-0.02306939461489373,-0.10719204987090056,0.015495425746148348,-0.08833895171893046,-0.06852104484209313,0.08777308314446686,0.11196646252634569,0.016068952699885834,0.0395444755493952,0.03457212850522344,-0.14538022179755597,-0.024205878654627536,0.06723034042552843,-0.06516380253470147,-0.0059505143140625915,-0.15404773582970477,0.12414792730778737,0.14743758417617195,0.14869867260876277,-0.011008613210203671,-0.08773567868619946,-0.00036216159839085835,0.11040022748029728,0.09585842223951317,-0.10842943918635715,-0.08963718021400936,0.005194588494626865,-0.16228037313530388,-0.06240949239478483,0.1424796253762871,-0.037579062431642205,-0.10745145348351406,-0.06379116959262239,-0.12060166827904772,0.24981611543707236,-0.11024249361250728,-0.07085769959070631,0.07754423610593945,-0.1396900171385508,-0.21581881148733742,0.02319166058924725,-0.07375237228968025,0.07048433846362495,-0.039405642435924614,-0.18158364517583134,0.08566813028674389,-0.0389717493713977,-0.04384675927116106,-0.07174502346402535,0.08046420672238107,-0.11567852390937726,0.0584780606952381,0.024197293114141583,0.1497862551274408,0.09622398246679512,0.0991833372345983,-0.04494978811352447,0.00762139696016657,-0.169990239240473,-0.12067978813606414,0.12851415481063913,-0.07709571860094629,-0.01543528373304945,0.18564184237053832,0.04896300540088204,-0.019986414076152707,-0.15449409526548277,-0.11783794339772816,0.11919640590152937,0.04201145613323096,0.0795997918118426,0.045311127704673534,0.13357188814847556,-0.20032399833125228,0.1752343818173663,-0.08809175661018144,0.016031051900459857,0.014759923857526478,-0.12788037159064425,0.11477042755021734
despacito,0.0643943749858833,-0.037506737656752394,-0.17736185024287374,0.19464639746923182,0.12236592424582604,-0.06450515376792529,0.12160715597109244,0.27907520619143644,0.004930114506835357,0.15748643695626402,0.3412140226527301,0.137242174330591,-0.10048228691672993,-0.05632759953677527,0.09532819020449493,0.12165224330583975,0.029170561461979324,-0.027299759575185125,-0.10136970031635055,0.054635367303140045,0.1253289688170987,-0.008334225059315963,0.050196671901486876,0.15567677883853434,-0.20728809897184186,0.11356327499717982,0.008739133374759376,0.056871723929505125,0.10222994057167664,0.07055269263360248,0.021926284713592033,-0.15266955948479788,0.001978881538809586,0.23964745520278644,0.019257774036832837,-0.1642093251045106,-0.033081490453059324,-0.05334440221443457,0.15821864896622373,-0.13793252248334537,-0.32517077381088505,-0.1213435185289564,0.3678821469325287,0.0734243482092382,0.10250045537227791,-0.22081577132525662,0.19883318992207072,-0.006310999152637415,0.07502569206867338,0.07090520410123088,-0.22577805728168632,-0.12895170099424427,0.17203962151171528,0.08246168483786855,0.22599804389330883,-0.15581314608519048,-0.05176887459045232,-0.022284788498475854,-0.05022987216133387,-0.04312254140775752,0.013379788611457073,0.2074260793130514,-0.1552616652355573,-0.16195450514064583,-0.043065289515314506,-0.08143024172410625,-0.18059688035252408,-0.0011044323805193097,0.1788885042932754,0.17701310320868063,-0.05620374522652126,-0.0903530276805004,-0.09540701982828184,-0.016534758388884813,-0.13468108258953526,0.09107979476897037,0.13196854112527942,-0.0368517970850765,0.1404382370918318,0.07336358631794673,-0.1106222848265539,-0.021488064851428807,0.02100881584001449,0.006667746525815921,-0.06922516077279793,-0.09759357869165013,0.15561670398823252,0.11217401807704261,0.07309364862728646,0.0014670451361440935,-0.09457683741949842,-0.08340019319851676,0.18534293373629782,0.04927735018642206,-0.06471596921253144,-0.050988348774157505,-0.06471120873347766,-0.09807936673820675,-0.10881132510452601,0.0386352637555205,0.05723324387074807,-0.048088066715622615,-0.177447061631444,-0.01182229595525583,0.20618194113662042,-0.07217734301208954,-0.12818702293526094,0.1573653488306445,-0.0837494593266372,-0.24786631996384545,0.07492770698226102,-0.1108425312958925,0.045003742401985895,-0.14398887097502644,-0.17145635628743264,0.0928923605242226,-0.08410622059653883,-0.0994260112416734,-0.008347576206077215,-0.008789136368772087,-0.06846487865778189,0.038310622810974714,0.20926529205743163,0.16681437758449336,0.09928993531805089,0.03538245672804669,0.0708614584792645,0.03818202626822145,-0.2580550964297933,-0.24901617997963368,0.15457369037397195,-0.19135588408087642,-0.06496212947690269,0.11997292661845059,0.03513596859112642,-0.05413047926788834,-0.04714289826008543,-0.20005362614396335,0.25234571500392017,0.037990637329108595,0.08758319726585298,-0.011664250480172314,0.18563127115581107,-0.31738008637437753,0.19548286781155855,-0.10228386956276886,0.07823738108687887,0.17136063981469848,-0.1610838860580923,0.09124868947013129
doom metal,-0.183066165317921,0.004468115992291307,-0.02314261522158057,-0.036748495375724916,-0.23465550443159636,-0.024236083815031083,0.17994070366088302,-0.056491273025049735,0.06070685009633929,0.02231276801541414,0.26337216030827204,0.05897565992293176,-0.12657590404624194,0.14918656724469603,-0.05618944701348702,0.09815714547206238,-0.054710086127167296,-0.10408854855491105,-0.15253733410405562,0.03248299344893987,-0.08848601560693328,0.033359967630057316,0.06824270308285252,0.07674975086705306,-0.1561947980732182,0.13864351676300968,-0.014284085163777905,-0.11505245684007968,0.03901300250481513,0.1407591909441265,-0.018296912909441788,0.010055184585743445,0.03675332292870835,0.04105782793834159,0.13871804412331587,-0.1420726529865168,0.0014230915221587392,-0.0035413418111747983,0.2973754190751414,-0.10813734894027376,0.01853389287090278,-0.22297317957610896,0.5106603346820887,-0.07200370712909389,0.004674812138728514,0.06875062331406535,0.0034489583815035924,-0.12056006050096407,-0.019698231021194872,0.3413734040462424,0.13562593680154605,-0.007921390751444983,-0.015402838150290176,-0.12490430346821028,0.29533765953755914,-0.2655750420038524,0.017756149710982785,0.0028749689788038616,-0.2284443963391124,-0.3794668346820795,0.13702555260116203,0.3032212676300537,-0.20642901502890754,-0.19102487687860417,-0.30376066917148886,-0.2289941736030814,-0.08272671965318101,0.14824745818882387,0.16808684219652642,0.24952891560693183,0.23490903680154243,-0.1879336526011524,0.16964694720617035,-0.12223963930635995,-0.18870800616570696,0.13859213044316243,0.06357727321772731,0.1483523213872838,-0.026408306936417,0.07902269710982814,-0.32347055452794227,-0.030786077649325203,-0.19885938843930923,0.10078757957610426,0.05519610346820635,-0.15155877129094072,0.283903479383416,0.21639305780346593,0.2796506699421992,-0.02724063198458367,-0.21554727283236594,0.11031434894027628,0.12915154547206237,0.28356849614641877,-0.12167692697494532,0.14078389614643563,-0.09202477225434004,-0.35525948824662806,-0.16231021695568387,0.2325744861271747,-0.00013611676300517216,-0.23308290963390785,-0.09230215934489105,-0.03317297533718778,0.3100385173410414,0.02183082658959456,0.007826967630057953,0.14169359229287137,-0.22691128477840908,-0.33670484971096715,0.09633891425819081,0.07065246281310206,0.2019752724470218,0.17414295510597158,-0.1758527048169586,0.1086575926782282,-0.10408834026975171,-0.050131669556839856,-0.07183557842003752,0.032200020231215244,-0.045586760308284555,0.09465927379576462,-0.10330746820809106,0.15543039961463676,0.02157040944123216,0.2442047739884414,-0.11030039730250513,0.05182916743737745,-0.17897426589595233,0.052622198458574285,0.34986784007707505,-0.15944504007706947,-0.01841969132948095,0.19247413815028575,-0.04450131868979084,-0.20673149807322083,-0.10121533044316519,-0.27938939287089676,0.2881204685934482,-0.18674889730250493,0.07678993718689367,-0.08461973603082643,0.10540992157996208,-0.16924725799614584,0.27810557668592994,-0.17346426050096278,-0.03218083660886154,-0.07154193102119666,-0.21653329903660803,-0.027003510982658938
edm 1,0.1266470730070409,-0.040089964369518026,-0.16811408091885705,0.2050371489059865,0.031017922791508237,0.06632542702024401,0.15523787602991684,0.16413529497462195,-0.016934162055982253,0.01914171381022492,0.23298458902167682,-0.09282712375184317,-0.15480901364106917,0.04102224084684864,-0.052121224532110426,0.07121505898401229,0.027885038904347972,-0.06603473148905986,-0.20376059158618445,0.09971226109020531,-0.023008953074699124,0.013020858896710296,0.10254693806952703,0.15755033016861789,-0.13359613930267022,0.10796690582200633,0.03220702040705142,0.11226848949636362,0.03733398641349265,0.07468881399028274,0.050596965788172674,-0.11265582195667047,0.021168492442844685,-0.011802926119933683,0.0092892736945482,-0.05552807202487858,0.07117741119658089,0.050147579036396904,0.30115997997489885,-0.15529607939104972,-0.17080332967750853,-0.11086585856931853,0.34568731461778623,0.06420660402684768,0.14472312255143485,-0.23811953292953478,-0.019051788290501186,-0.1783764386424211,-0.0016419938887996934,0.1406276597915554,-0.10158344873683624,-0.06814987177388745,0.14500900289192362,-0.2443701248977098,0.03234935581382732,-0.0773628851966995,-0.07444651486877743,-0.00816361450319258,-0.03602015976428259,-0.18033522775140604,0.07811342849347237,0.2952382715119483,-0.046775612102362085,-0.06753138653353294,-0.23525267954382906,-0.01571030916134478,-0.012131166421124497,-0.0957916807988193,0.08939665280731815,0.09856913695639177,0.034171030828832764,-0.08223818890162359,0.023904402248046748,-0.0841411353740363,-0.038371576144484526,0.09797017340535548,0.20300727953295258,-0.0168129674796736,-0.016684201178586367,-0.029502935886944335,-0.18380408053692332,-0.02880329972172152,-0.01388631014350522,-0.015055529382871614,0.011698960768262621,-0.21367278490752462,0.052479302286248544,0.1823933366617398,0.12156144289845261,0.010143461941399486,-0.11461757636274071,0.0277480497626466,0.11502068565507138,0.08069515283462667,-0.11295113073607173,-0.10648385240355848,-0.033446688274129346,-0.14942999307034457,0.0011780585474982703,0.16293543296772886,-0.07410694570851925,-0.09740567839799437,0.07050210214438359,-0.10308093545041237,0.24719014694166425,-0.15812428526219133,-0.10434609968897605,0.11283005723794826,-0.060595742347353064,-0.23409972837891665,0.05719263529219565,-0.021810280242268717,0.07735188759753246,0.012622164402248157,-0.27139922758770146,0.08731350619306233,0.05230250302831647,0.06993858585693113,-0.09348309019480072,0.27774351917934975,-0.10663751421401628,0.041312126043541404,0.061741826540078426,0.3019078112075416,0.11806546843455905,0.12649754444262468,-0.056235350030010206,0.03900761204780179,-0.22520044246195595,-0.03856222960659098,0.21264503121080106,-0.03270579712991411,0.05160636563541082,0.09243847841982096,0.028884095869484455,0.0011969020025104455,-0.3662820323566294,-0.10936515338025736,0.11769410492716322,0.0835959825939987,0.23929500081844923,0.10796592219129773,0.18562825274186012,-0.1647511713319178,0.04182653129262754,-0.09756800567467622,0.13024081360835085,-0.01996011895018443,-0.14137802280786574,0.18314884181810248
edm 2,0.13134979168797403,-0.02176616061380948,-0.21418724092072886,0.2709020189258187,0.11726322199487592,0.1213698982097207,0.1800985661125368,0.20312701790279786,0.09235540460357539,-0.015587924040917104,0.15491145255754712,-0.1536697831201936,-0.20826743618926621,-0.02429292838874771,-0.05160798913043383,0.09996461138106497,0.011410345780050894,-0.05034253235294188,-0.24278433631711224,0.10646799309463302,-0.0305302925831245,0.0011346930946266017,0.057888075703316826,0.19172748209716658,-0.17008592378515777,0.17329738273656772,-0.08724510767263449,0.16608924897697416,-0.012079722634271149,0.11496926726342928,0.03658840754476894,-0.043798752301792386,0.027047314194374155,-0.12493413772378016,-0.0389405158567706,-0.011751330306905575,0.06705382531969949,-1.237276214811564e-05,0.34740785051148937,-0.15755277365727804,-0.19222579373404203,-0.07964295089514503,0.3909638890025559,0.09889259028133325,0.22062202851664162,-0.35581257621483714,-0.03185443554987227,-0.2376088271099574,-0.019507764705883213,0.14470485447569695,-0.17795083721227495,-0.10446099578005469,0.20271019117645742,-0.33366987199488024,0.04340224462915884,-0.008155276342709081,-0.07403436329924319,-0.07876214782609108,-0.03529626982097169,-0.1487051012787793,0.0670499006393795,0.33392209667518546,0.03949410792838983,-0.010946298337594144,-0.2756541007672402,-0.012335702813299484,0.004354931329928826,-0.13940452890025237,0.04426424207161621,0.08599667161124683,0.047031257544758086,-0.12426357519182003,-0.03945064782608694,-0.09330956854219868,-0.05461510460358108,0.13839141138107183,0.2863289057544663,-0.06157408081841597,-0.030908098209715865,-0.05779425907928634,-0.2052387474424445,-0.03607193299232749,-0.0578036063938616,0.022742576086956012,-0.08300196445012954,-0.23885695575447438,-0.03683764731457798,0.16228726048593473,0.09824060716112153,0.04463206867007648,-0.11724789565217958,-0.03584450920716129,0.10111721291560391,0.05141938081841653,-0.08565237097187117,-0.16853146751919584,-0.12765080230179884,-0.12028370294117592,0.023877016751912096,0.16856537340154304,-0.05126993695652508,-0.040279399744241697,0.0684690765984714,-0.07319924181585104,0.2940510778772527,-0.2158911195652062,-0.14404492595907467,0.14196566010231043,-0.041155292711000206,-0.20378982890026304,0.043072849744246446,-0.013427774296672893,0.043703041687977694,0.004693646930944999,-0.33704999143218756,0.1491040776214931,0.0968721772378509,0.17390797429668645,-0.07081749309463026,0.3317108835038783,-0.08983017250638826,0.056330373785169856,0.11383141764705952,0.4437725125320051,0.10693930140664318,0.18106379296677055,-0.06922453478261018,0.06779427557545095,-0.2753035360613823,-0.07486219309462731,0.2684068907928398,-0.03338407493606287,0.02521350102301717,0.04807872020460723,0.08769971956521946,0.0633145841432192,-0.46038001508953763,-0.07677973145779418,0.14336797378515656,0.17251291675193345,0.35549366534526033,0.1584979405370884,0.20709676930943435,-0.15215322851661348,0.028292477877237536,-0.13441443772378783,0.19542860383633814,0.07996014884910468,-0.18082585690536307,0.28425284462915124
electronica,0.16219148504429162,-0.02589697092235479,-0.19560635904117574,0.2011481113079679,-0.008280552162583719,0.034600106826472264,0.19460524960917958,0.08175779718603955,-0.1478581919749975,0.04467009911412252,0.26570502376237326,-0.11585808254298269,-0.1452974973423668,0.08714964481501605,-0.056250547576860106,0.05508686868160982,0.11950203230849143,-0.04638799478895026,-0.19207627774882016,0.142409541427831,-0.018693404481501006,-0.02548121052631653,0.1824216757686318,0.1832145955185012,-0.10615592225116448,0.09181425711308062,0.1172203849921934,0.09035355122459202,0.08465846513809144,0.05099013778009562,0.005588974465865686,-0.20606109213132104,0.039350826472122735,0.0464404262636807,0.06780708806669898,-0.17392406930693133,0.07518582365815088,0.10047837425743228,0.3138899976029135,-0.22560155289212536,-0.17301543355914337,-0.0910316967170369,0.32698219041167337,0.01331312600312781,0.1139175076602407,-0.12074230442938902,-0.061871855653984086,-0.26097770255341063,-0.04036159562272,0.19248903866596756,-0.06379297446586911,-0.05090151162063424,0.13752592933820207,-0.2360763147472496,-0.02841502855654029,-0.1284562580510679,-0.09708320614903655,0.07763221782178045,-0.08272324585721834,-0.24688598082334326,0.10124208223032567,0.40235686221989203,-0.13831599729025887,-0.07079379968735033,-0.32694463408025615,-0.023001706722251113,-0.026968381344448414,-0.08937750328295649,0.12069787055758831,0.13254163710265257,0.09159497311099259,-0.0749713294424194,0.09163361386138881,-0.08148808045857324,-0.039339654507556034,0.05383493548723232,0.23711247826991916,0.08372057290255504,-0.05034835122459497,-0.053467544762898105,-0.17020437842626074,-0.06448907524752505,-0.002366963105783901,-0.025437357894734926,0.06849885127670172,-0.20111386555497784,0.1492086015633137,0.33250771631057546,0.19055347566441047,0.02696869609171328,-0.12364184127149663,0.11154427576863948,0.12292130119854304,0.13916087107868128,-0.1279676492965049,-0.06134031474726408,0.09885948160500208,-0.18255796831682997,-0.025473852423135778,0.17996427910370494,-0.14781123178739491,-0.1116253774882748,0.18682612371028012,-0.138502309327778,0.192280672329338,-0.12383446232413577,-0.16141523762376517,0.13071804908807863,-0.07587424022929162,-0.3237123148514663,0.07391065544554358,0.09275369953100743,0.08693744471077944,0.0577447520583648,-0.23424569442416404,0.05151502886920411,0.10659465784262753,0.03302775059927116,-0.08397425263157422,0.3349010930693047,-0.10692017019280577,0.03144365409067147,0.09223444971339101,0.23343154007296446,0.124137880771227,0.12851112235539489,-0.049223377488274905,0.03380177863470383,-0.25759365867639383,0.023858676706618183,0.24025296039604602,0.008923635643564663,0.08313991182907926,0.12107160667015628,-0.025816480771235124,-0.09808816612819636,-0.36227209233974744,-0.145784527670659,0.15123303241271305,0.042429331735277825,0.22919098165710824,0.06771644523189217,0.19215291912453508,-0.13017677008858852,0.04092034132360697,-0.11947371130797145,0.07764219739447639,-0.10143567368421144,-0.1095892892131328,0.05593195591453577
emo,0.1381155002565446,0.08617753514622967,-0.03490825756798323,0.20643763211903846,-0.16892967675731255,0.19492762596202912,0.23470999435607434,0.028732484864032154,-0.09259118009235397,0.07581569368907237,0.404332380708063,-0.06093473011800882,-0.11642051051821707,0.20171860595177418,-0.01777102975885038,0.11389623088763282,0.19052510877372755,-0.034714575166750854,-0.007403972806566472,0.005460576706003008,0.09610107029245768,-0.14075065726013494,0.1733997727039516,0.07167174397126842,-0.18166886813750507,-0.008061461775269724,0.13289615802976124,0.13309874910210098,-0.010452146228835026,0.18672493842996477,0.015285246793226785,-0.12370076654694558,0.10809927090815781,0.10812668394048089,0.08995650076962469,-0.12582954746023625,0.1217202036942028,0.10634336531554511,0.3447990107747532,0.027822731144176327,-0.18355090815803285,-0.00967577988712194,0.4263744935864459,0.045974698819908275,0.015503417136991942,0.009682850179579153,-0.05695654489481833,-0.28992860851718594,0.00046776603386387356,0.06270199435608101,-0.03553680861980515,0.014809207798871163,0.17525664289379225,-0.18413874294510152,0.1245096531554641,-0.2535346500769659,-0.053775511031298344,0.02956258696767609,0.06980532837352443,-0.26762889789636196,-0.01695629707542295,0.39309800256542277,0.006805162134427927,-0.24862848845561597,-0.2666274335556708,0.0324483478707027,-0.09539623601847176,-0.10448339302206193,0.18229345767060118,0.157670569009749,0.10778837814263685,-0.019531396613648503,0.1274115238583909,0.11681297896356951,-0.06977274910210236,0.01656096459722921,0.12740098255515703,0.0927324976911241,-0.16948828373525116,0.011899676244227914,0.019959528989224963,-0.027868738840431458,0.010338664443305043,-0.058202780400206315,0.05019405900461822,-0.08528296716264579,0.16397256695741116,0.38596053412005876,0.15550837506413745,-0.1092183853258072,-0.021337455618265586,0.08474263417137073,0.13752968240123203,0.26959130990251295,-0.12974450897896206,-0.10478714776808562,-0.004070714212417004,-0.2483444263724976,-0.03826897024114909,0.03856692970754113,0.031560547460236406,-0.19059202770651332,-0.07886322626988206,-0.27083628424832873,0.2993119445869598,-0.13770382863006872,-0.10474935351462165,0.2666922211390395,-0.19240963468445602,-0.38975766290406383,0.005753788096460036,0.13119582709081454,0.09046601282709058,-0.03961003694202187,-0.13914936890713178,0.07917199999999952,-0.2177021421241642,-0.12913275885069397,-0.04669585992816935,0.25059130990251294,-0.11193924576706112,0.01322978091328871,-0.12304872190867054,0.3194925654181618,0.12605296972806568,0.12071204771677987,-0.04220646074910318,0.18011726064648728,-0.10909238943047875,-0.0019998116983066514,0.26671385992816576,-0.08042275166752338,-0.11554232478193899,0.3102664869163722,0.059721955874807435,-0.04530204669060941,-0.22666264084145826,-0.17062980400205188,0.042270093381222694,-0.09608247255002592,0.07101573011800776,0.05195922986146795,0.19162773370959102,-0.26361995844022823,0.19280168855823798,-0.11934091380194833,-0.0022258481272438204,-0.20949836018471238,-0.1967863760903037,0.10437369368907119
grime,0.20760414100905583,-0.08137438809831908,-0.2562717347994821,0.26804623544630984,-0.057756172056920844,0.007991923673997542,0.14469194825355963,0.18806929624838153,-0.2907788771021999,0.16336121345407623,0.445768064683055,-0.00963615265200517,0.023044822768434805,-0.005291053040103351,-0.17682564812419146,0.2100290206985756,0.1144502380336344,-0.006746975420439902,-0.19392878913324732,0.1276021836998719,0.005058163001293717,-0.11177745795601589,0.2893021914618412,0.29201846183699903,-0.14446254075032455,-0.0006211824062095753,0.17763954204398294,0.1473609443725741,0.16887559896506973,-0.008813031047865388,0.010748067270374905,-0.18937972962483743,0.1734830025873227,0.1086391267787842,-0.015237304010348729,-0.027840028460543516,0.1303891642949538,0.012527560155239028,0.22067893919792997,-0.3109272910737368,-0.06191273350582144,0.028178901681759252,0.47121409314359763,-0.037551059508408584,0.027858803363518446,-0.14644523932729747,0.2129165213454075,-0.15159563518757832,-0.12259963906856455,0.13465032212160352,-0.08405946183699847,0.030299040103492644,0.10753126390685669,-0.3790333130659712,-0.05448806468305296,-0.24848793531694535,-0.0836413272962494,-0.07782433376455396,0.047498548512289365,-0.32774427943079115,0.07285862871927455,0.28572514747735994,-0.2559211720569226,-0.03905705562742621,-0.1444706274256155,-0.00015636610607947573,-0.17670305950840706,0.062304567917205914,0.008404240620957053,0.2805825252263924,0.015476377749029758,-0.05238339715394593,0.15828020827943265,-0.03555185252263932,-0.12129636610608069,0.08702351099611924,0.2095435912031072,0.08506992884864137,-0.05634394954721749,-0.10891172056921092,-0.22804128978007757,0.02705905304010351,0.16090327425614392,0.07953367658473452,0.059869671410089226,-0.16801308926261366,0.23238298188874604,0.05125876196636412,0.003188882276843357,0.02003869728331167,-0.20833238421733494,0.011423489003880578,0.1769736222509722,-0.1245869443725738,-0.07061716558861485,-0.027570269081500752,-0.03070386934023283,-0.14348783053040143,0.12161737516170903,0.23268900517464491,-0.20234749547218697,-0.19204008408797077,-0.10977270375161777,-0.06660018628719272,0.281957919793019,-0.023047421733506008,-0.08798900129366091,0.37424981500646837,-0.17637680595084224,-0.17986053169469618,0.05975887063389422,0.16026692755498012,0.13910944113842286,0.05304146054333668,-0.3179489404915957,0.008154666235446206,-0.01662481630012924,0.12931166623544688,0.0546092652005172,0.30338161060802193,-0.26595369857697054,0.1932515109961185,-0.013393866752910672,0.2354306830530414,0.16884812289780235,0.07264770892626085,0.0760864372574391,0.06517385381629993,-0.2146703441138435,-0.34603143208279286,0.3820020504527779,0.016769009055627244,-0.036350003880983285,0.19575791849935492,-0.01676237386804658,-0.10501917852522645,-0.34672112548511863,-0.2349163247089278,-0.022322579560154918,0.09634166106080273,0.381971080206987,0.1999039404915908,0.15721466364812556,-0.2556614592496736,-0.14422871927554942,-0.010192641655886151,-0.017212141009055444,0.027040799482535346,-0.4633736300129363,0.18417859379042625
hardstyle,0.09154497746619819,-0.004286688532798833,-0.37141087931897593,0.2864124476715011,-0.14424633149724547,0.18277747571356812,0.29835910615924177,0.19631268753130574,0.3100699434151248,-0.10169160741111584,0.301063715573359,-0.21290433149724952,-0.1206802764146282,-0.12870098998497562,-0.034705547821732616,-0.0601880445668506,-0.12417297846770446,-0.03497509764647172,-0.5225344777165769,0.1740197851777639,0.019576543314972397,-0.0840784937406113,-0.021672037556334785,0.14938057986980274,-0.22989740260389782,0.07811935703555553,-0.06187182924386363,-0.018100870806209438,-0.10915448923385225,0.21162915272909674,-0.05622551627441161,0.06342346970455619,-0.055515790686027855,-0.11205885428141846,-0.13691303755633633,-0.03085252528793309,0.06934388983474998,0.008227577366049241,0.13958590886330197,-0.15095064396595206,-0.1614209744616918,-0.19666197546319072,0.4450534161241977,0.046610603405106275,0.2672975252879255,-0.6062419318978445,-0.09935073009514304,-0.30072197396094735,-0.18825584276414645,0.24079573410114724,-0.4918742458688176,-0.1335004867300925,0.3126492103154716,-0.2427035703555274,0.0023357946920381616,-0.22336647721582567,-0.052703221331996064,0.12519367751627475,-0.32394256835252905,-0.210020475713561,0.04472747771657475,0.16857765798698135,-0.12024440711066868,-0.034299412618929465,-0.077946631947925,-0.379233801702554,-0.15083310816224824,-0.027025581372055903,0.005937229844766757,0.10364131347020669,0.09024996995493355,-0.22673019178768516,0.03734704606910354,-0.2829615578367529,0.03761115172759193,0.21474948923384318,0.09369314221332466,-0.16014407961942967,0.14500927290936547,0.13677046770155277,-0.3222800706059209,-0.2942357661492187,0.04683325988983443,-0.12847345217827,-0.0706134852278427,-0.30018972408613115,-0.07562697896845201,0.1472891677516322,0.10441998547821264,0.13952984226339774,-0.2720104797195817,-0.2602575548322536,0.04041298247371153,-0.2186973935903888,-0.17116983575362996,-0.10476445668502497,-0.19803248673010057,-0.124459620430649,-0.05716991887831657,0.12179588432648883,-0.07432497496244578,-0.10374722233349903,-0.15803875613420348,0.0677570841261897,0.3140856114171311,-0.20731566499749862,-0.17216296695042074,0.20156337105658145,-0.07278952679018515,-0.22245975363045084,0.09416297396094285,0.029604844767150428,0.2282206870305499,0.10770261992989417,-0.37069291437155766,0.20134150375562912,0.19638421982974777,0.37535292889333666,-0.05550800100149832,0.25293997496244464,-0.177747268402602,0.18176801952929061,0.002841582874310959,0.35985982373560466,0.016107581372057436,0.24295408612920225,-0.045627593390083446,-0.018579937406108894,-0.4447333054581942,0.004591374061092108,0.39898235102653296,-0.10147048322483897,-0.07858083875813872,0.11999807611417489,-0.03760264246369589,0.07842327741612505,-0.6006758673009518,-0.20148680671006847,0.21850360190284854,-0.08649096544817331,0.29786830696044936,0.12513754932398705,0.2682373795693535,0.08218631347020468,0.14418315673509835,-0.27407066399599017,0.25318765348021316,0.18094746920381136,-0.1198367381071539,0.21739996995494093
indie 1,0.06097808727769533,-0.045939828607928,-0.06669959023997496,0.09464724734632787,-0.05996740655291105,0.01024286998576999,0.10042483849214966,0.13195097069796136,-0.07869524589981669,0.05929563418932625,0.29523085035622176,0.0030221185374499117,-0.0997148886729592,0.14217056079189497,-0.0034873305256312207,0.07258869136866739,0.0761918296964569,-0.0815711461737247,-0.0919034428096433,0.017326254132994566,0.01744557467217368,0.028094388632835515,0.08745944800375376,0.11876616736680476,-0.08618339793986798,0.03909346141653125,0.11462448575088528,0.05002561344189777,0.08141004192568795,0.06325008035211402,0.09773041469109563,-0.12486994978266394,-0.007292417540254663,0.1013002255615569,0.06903231926068192,-0.05629989363333313,0.07993511208685523,0.06251230307191609,0.24299258863278264,-0.08989378725203286,-0.12048266236619633,-0.11841375624790537,0.26341357650576663,0.02984933849581514,0.06246115300432142,-0.10381960455124149,-0.020475410432080225,-0.0553988772546248,0.05056510592105114,0.06706704939183926,0.031407605756622194,-0.030599255433396557,0.06553005470279849,-0.09383253427328221,0.02445130272856637,-0.1172873421996129,-0.04029801905249058,0.03600409995252772,-0.032153811739789165,-0.19158075809632996,0.036985353866413016,0.2503264213243241,-0.052272542557624035,-0.15418606311147706,-0.1676589035030537,-0.010417945238696939,-0.02810686354241345,-0.048206102706662486,0.1630546065017787,0.0739425496511742,0.0022324669321108965,-0.030073876611760947,0.04720119766959336,0.016319698739815487,-0.012576682594873781,0.01692576727180892,0.0724705845783002,-0.0038853378967881385,-0.02633333890495467,0.03439914453009497,-0.130983325375291,-0.011874963619094424,0.04975047721081079,-0.07259682053547713,0.03541506363733996,-0.16677579829049965,0.14547247698441523,0.21960955776741942,0.17480406642076382,-0.037418913219136415,-0.09296985723778131,0.07834646212498234,0.17070592077280725,0.1333650410198268,-0.12336988579457006,-0.030252424692255097,0.04181273346968998,-0.18012775591185198,-0.06471411950905906,0.17295538206524716,-0.02830792011542427,-0.09032149112760415,0.03385876246488196,-0.11502129523323258,0.24022184852959425,-0.07556004937719721,-0.04678072083865102,0.09518695399792416,-0.11476708017680222,-0.2570708747270491,0.04242358789494789,-0.048570689688431944,0.08626106688095869,-0.022427534945387805,-0.162212360163723,0.06502878355554881,-0.020282132235095195,-0.03848953723928851,-0.12016349694987072,0.16010806743628767,-0.10078960744425312,-0.0127692349782478,-0.019146197983687722,0.14074173329436554,0.11817985858205173,0.09085815788439375,-0.0676608501515534,0.03869493132188854,-0.15000430044939778,-0.04767326444097862,0.16727011269302267,-0.026713296913467285,0.05031485281805667,0.16051670180081581,0.03424136990172076,-0.02564874884758157,-0.19748396878401242,-0.1219152882492216,0.11258736732294135,0.01118676375788724,0.060410027680128174,0.0525532905797218,0.10927341778139697,-0.19893875648912607,0.10484726789643423,-0.09714263149352222,0.07579493526680726,-0.07542620775832995,-0.08499764156778178,0.12633600401057554
indie 2,0.0852643342403687,-0.046234021703918,-0.06550105494006705,0.12784691713638047,-0.05805408532556226,0.044373682669265065,0.14362669624232266,0.10303892993198771,-0.11937627382572658,0.05366527887917244,0.2904144692257772,-0.014605543569808789,-0.10499225519922988,0.17942899552967095,-0.026360619436342173,0.09115341308714628,0.12861045856819095,-0.08159979708455083,-0.06083725095559096,0.029076183252350993,0.014010370748295998,-0.009011053741490152,0.13184618182702654,0.14109383566570566,-0.0968314538710836,0.04538401561386017,0.14415579873664114,0.06919603803046342,0.107416204470365,0.07247785649497299,0.09137403210235828,-0.1791437102688826,0.01375605027534634,0.10811976517656925,0.05779971516034116,-0.07742624713314965,0.12781692044055898,0.07024081133786582,0.27195874013608556,-0.06993729828313695,-0.12486596760608275,-0.09405410913510802,0.29161748872696047,0.022908871169421554,0.09073419394234292,-0.05859692555880765,-0.023537382086172013,-0.10908584036282437,0.04379928989309418,0.07977988153546581,0.020860809588618866,-0.028764735244573344,0.07012979216067948,-0.11352274130222285,0.021097245902168417,-0.1253882448331759,-0.044475515905397486,0.06733585319079727,-0.02591109248461147,-0.19384283702625854,0.06949125895690988,0.33241726624556356,-0.0643503023647606,-0.18532027939746776,-0.23542692928409503,0.025711851247164328,-0.044368996954956316,-0.05553414000649061,0.1830378723031702,0.08284360045351723,0.042435404243600275,-0.04295545351474175,0.09666346200194988,0.06618932772918817,-0.019637633560090857,-0.007523575186251825,0.12744074982182668,0.04387009024943042,-0.0660298246193615,0.005928888597342898,-0.09822521551669056,-0.019229670294783875,0.050187197829614026,-0.08921046812439633,0.04832584661484516,-0.1463852806608158,0.17522057771298727,0.2818164587625441,0.1890418887269023,-0.016030060673793162,-0.08581884318108611,0.11459835283446224,0.1710234037900697,0.17306698594104714,-0.13896324269516816,-0.034752201068999664,0.08508349608033704,-0.19315840897313713,-0.05768652364755254,0.17734988208615068,-0.03682501558146826,-0.10791068956916097,0.07700091898282016,-0.14847483326854824,0.25494719906060836,-0.0983970412374508,-0.07622496997085086,0.1251312243278437,-0.12274238357629037,-0.30629091632657424,0.00792171153222892,0.005888276320052349,0.10531480482669567,0.010492758794945111,-0.15969534716552047,0.050057422805300726,-0.01773328756074041,-0.05227536977648321,-0.10623632789117994,0.21386454350504272,-0.09401995280208818,-0.0184780334305193,0.0006915370910288546,0.18529003394879875,0.12598842299967877,0.07120055908648255,-0.06231913731778434,0.05219755413022546,-0.16731618778748839,-0.028406510236480945,0.1685375422092538,-0.022549332555879643,0.05644424826693189,0.18859351995467608,0.03218139316488464,-0.07260773806285056,-0.22358823281501136,-0.14373228681569725,0.12730186206674077,0.01935102542922264,0.09244132082928436,0.03221975008099167,0.1400957758989387,-0.22967622597992451,0.1132114949465434,-0.09603830142534238,0.07869617359896151,-0.08809719109168844,-0.12526615626822726,0.0815720633948701
indie 3,0.09903983789285511,-0.060906460674151425,-0.062284858003582674,0.19231156228626353,-0.037653420045600725,0.09123351897084926,0.20492031257125642,0.09262371901969127,-0.15579315746620903,0.06254882014330476,0.302390053248641,-0.04223486850675734,-0.1032107795961464,0.213719911496473,-0.04244412725940677,0.10627433593878241,0.1674872274873842,-0.0810269738641944,-0.025749892118551426,0.06451817920534061,0.011196460999837038,-0.07269223750203664,0.17877346938609542,0.15911753655757074,-0.1377730460022853,0.0543117405959963,0.16883146425664305,0.08956217896108391,0.136916112522382,0.08924355731965526,0.08940374588828943,-0.2148226960592635,0.053737000814203156,0.10249010999837918,0.04699992484937571,-0.10235854127992333,0.17982524881942163,0.0847021871030774,0.3032567116919345,-0.03324163580849752,-0.1497107239863139,-0.04159163027193889,0.3442473960267003,0.028214528985507636,0.11966111903597507,-0.011706281631658346,-0.0017723563751838242,-0.17165502499593893,0.012279430304515504,0.06947270770232895,-0.02182416601530655,-0.048274140856537306,0.06420301848233063,-0.13400533585736243,0.05030368563751834,-0.1636524610812517,-0.0312437364435754,0.06745696124408726,0.005396229604299352,-0.1887537941703208,0.09183459827388732,0.4129868058133616,-0.0733793056505451,-0.23354743128153244,-0.30802326119524676,0.052372087282199685,-0.039364394235462424,-0.06506510218205422,0.20990485743363319,0.10421202450740201,0.08484426078814426,-0.07507394284318931,0.16173324474842068,0.13307143926070567,-0.04449577234977952,-0.014427691499756937,0.2025625037453154,0.10744621128480657,-0.10736690718123487,-0.02128066682950884,-0.035305219915320145,-0.03348047044455109,0.07393917008630803,-0.12255601595830605,0.039122039651521306,-0.1247022312326988,0.23056699951148985,0.34490139325841707,0.2030993266569018,0.01567133756717138,-0.06858894349453906,0.1622292051783145,0.15387665730335495,0.21546659412149635,-0.16186929091354946,-0.04532968400911963,0.14165593347989527,-0.19135074018890055,-0.04914502532160512,0.1894010829669341,-0.031260155512132716,-0.11984306733429959,0.10022616992345992,-0.2021719223253662,0.2772086709819358,-0.1299628339846853,-0.12221276542907805,0.1703281251424735,-0.16053907889593633,-0.36106956692718256,-0.03168057629050545,0.05015280581338459,0.13646759802963712,0.012892396270961429,-0.1431488841394095,0.03643902906692904,-0.03286078293437406,-0.07568783528741359,-0.08127361447647065,0.25143712497965276,-0.09318195489333446,0.007751633365899846,0.04285418457905994,0.24513970420128842,0.12058339635237293,0.03830869793193146,-0.056211454404813954,0.06064205324866324,-0.18290066593388973,-0.03120765819898849,0.16598987469468907,-0.025073004478096624,0.030282158361833626,0.23598625069206286,0.039574001221298345,-0.126774647695814,-0.24889875004069792,-0.15340661846604067,0.13898617489007267,0.030624335531669353,0.12624473286110574,0.00890704860771466,0.17922443535254887,-0.26602124947075245,0.14106479303044414,-0.09791311520925017,0.07884031949193597,-0.07414213352873676,-0.1877178510828702,0.03189146922325191
indietronica,0.09548151130742079,-0.05097854717097985,-0.11490828053242448,0.12654855177336405,-0.027357014079937972,0.005260512436270216,0.1210223909019955,0.14036978000523748,-0.06730285478409326,0.0599571116349143,0.28029801267819043,-0.029717004701599513,-0.10429611453774354,0.09987239304812486,-0.030753219783909765,0.06661060247360713,0.06021250409993337,-0.06739261755840215,-0.14740069390032498,0.07339583152422754,0.00408181599285355,0.02108655612755294,0.10910760200218873,0.13964042339135335,-0.11053430953594107,0.0741696213172038,0.091249772859796,0.07196253209860659,0.06652044260709689,0.06626731746292079,0.07422731683024085,-0.14415540768630933,0.010935253960378713,0.07991715556188761,0.0446801700512126,-0.08152146816190582,0.05982570516429711,0.05878500163749249,0.2607191851856576,-0.13824453813995666,-0.15164713735095967,-0.12329475462406507,0.2938876006251846,0.04060175222983999,0.08062273492452171,-0.14392398130531164,-0.020109937105364385,-0.10816910378236848,0.0194865698850023,0.10012196569949318,-0.02707124536354296,-0.04660975652206639,0.09345406502833599,-0.12957228079297278,0.033327592921566014,-0.10471485173243689,-0.06114583492327049,0.02961914733723111,-0.05174562706082358,-0.1977617818535921,0.05565863731998494,0.2587702710920922,-0.08180202941286785,-0.10504853212337857,-0.19597015459428288,-0.01632631731400415,-0.017949905571183776,-0.06038115262185951,0.12295298548585963,0.08704313078859778,-0.004695493158502705,-0.04961576160821331,0.03178517044820682,-0.062237234508928506,-0.023984950279737755,0.06199761446948785,0.12390407981540605,0.012498153490223977,-0.018156100953964208,0.008126965600225085,-0.1558950914142747,-0.020545651114611024,0.030753675751444033,-0.044640494101322425,0.04647151942042148,-0.183387908796638,0.11549506986640722,0.20540173744275966,0.15119042577316186,-0.028748340127260866,-0.1049249504038243,0.04463384864348535,0.13408720081624256,0.11088450066367168,-0.10836717839993298,-0.055495441465808704,0.0329333628164928,-0.16953469739862972,-0.04923435048568141,0.15531331856691366,-0.05314944124250652,-0.10128174809886567,0.044824058676848355,-0.10417219515948334,0.21117331447320123,-0.10935452491595715,-0.0728680495093857,0.09638690800263522,-0.08602549205443999,-0.25340602230468345,0.052786810286443324,-0.02603558808351251,0.07561776681843176,0.003375712036819463,-0.19028388319213665,0.0716186621180836,0.01267590697299754,0.0014357055488692298,-0.10087259553903506,0.19415911282576592,-0.0948300209276672,0.016982040428723363,0.021694024289483433,0.1751682723325635,0.13219900234457763,0.10700922489485322,-0.054696180980260994,0.02981570764535886,-0.19283051455753247,-0.03681757949907842,0.1838349038468652,-0.023778965389343272,0.05858162292986725,0.13831748813438502,0.02122270992792937,-0.02592654796491907,-0.2405817273945267,-0.1243767968639104,0.11678772576940381,0.043329666435102415,0.1214682331940057,0.06698760060040207,0.1456824699234628,-0.16532672103063742,0.08624889293024562,-0.0943228578109611,0.0842574608180182,-0.054176779806742785,-0.0934976714964925,0.1238973483395389
jazz,0.07448823767708454,-0.02126513335674862,-0.10287610080786776,0.0905405480622858,-0.04442240709519212,-0.01634401685985273,0.13085702809974958,0.17873118440462893,-0.16916371244585326,0.024847397611521674,0.22900278796394175,0.02917504812082861,-0.10390253705655776,0.1160741859267131,0.004282006556609647,0.13066745170354827,0.028664105139909583,-0.07790468938064066,-0.10151886886781454,-0.008230344690316898,0.000281597119775307,0.02277138824493832,0.1787923362603956,0.16607097623229203,-0.09692660906216802,0.03821661538461556,0.10527590153378891,0.05197774218475365,0.13844185903290332,0.06389987296569445,0.08931414354291016,-0.24820653073411794,-0.009246657417163481,0.13250012680013185,0.059870054794521406,-0.06791493010186327,0.04387360098349453,0.06132930382859345,0.2801670134644797,-0.10828381208289636,-0.14488143519493854,-0.12236144151738892,0.3174971413183454,0.03505143777075517,0.0693253336845818,-0.03999116426647617,-0.09241528614916142,-0.08175473527689839,0.07365671326542565,0.08689480962416715,0.06599419564453948,-0.06114116215899849,0.06938516215899655,-0.1306871892050171,0.045233498068143765,-0.15219682074698293,-0.09116587214611904,0.060765609881744585,-0.09710145919681477,-0.22528388724973103,0.01874537688795031,0.2901206324786279,-0.08412267017913427,-0.15167269874721304,-0.18321511556024306,0.04756167322327546,-0.1106956124575583,-0.04838169207352574,0.1825353204542889,0.07144489240135841,0.04452776056667898,-0.050276866174922004,0.0963506440697815,-0.05192873211567576,-0.026734631776138926,0.06054251434258329,0.17459983093314685,0.07597946423135415,-0.06840721589977813,0.039847436365763225,-0.11991902669476685,-0.046306384264138,0.09351745463060361,-0.06865202540686077,0.0634639512937606,-0.17092140615853238,0.18137956398547628,0.24020755953635334,0.18792054232526226,0.01363857510830016,-0.08885530019904352,0.12748355871677347,0.17864060941341178,0.1341922647231067,-0.09376158236740284,0.026500598758927393,0.1019935498185212,-0.20977597634937367,-0.06739042980915322,0.19815211146236136,-0.07538400948366762,-0.09534062498536293,0.018171862428286147,-0.0918402722163715,0.23169782414237183,-0.08380699519962234,-0.08735011977520109,0.10233671022128148,-0.14466095948952784,-0.2621201394450323,0.11706714143542549,0.009031193185809498,0.11539598700386072,0.0186797053038295,-0.20755636623345558,0.06294918276548385,-0.011385560707177804,-0.08829216204191352,-0.0891625183233772,0.20243205666783642,-0.08668729867697582,-0.05282691687156177,-0.004572594661047201,0.1662509660461216,0.10855090902704438,0.13367336951175693,-0.0275361757405461,0.027223486476991292,-0.17253735405690157,-0.04287695890410855,0.24932928263669213,-0.021000570542091,0.04781628017796651,0.11771601849900631,0.007754964172813083,-0.02763615794403459,-0.20357340217774725,-0.1285548610232972,0.14539681700034943,0.04318005737033295,0.05863886383327305,0.02262472766655182,0.09690408710923626,-0.22452226027396532,0.19069172637864404,-0.16102180658001902,0.063945037934664,-0.09126248202786205,-0.09547977965109135,0.05843028825664694
lo-fi,0.3424785260482827,0.17369393265565586,-0.35326843964422144,0.2405523684879272,0.18262681956798069,-0.04176573951715381,0.41347949809402834,0.29323771410419147,-0.13366052477763726,-0.12656356416772355,0.30132580686150195,0.017933428208386365,-0.16065056670901942,-0.17365493646759972,-0.11450768996188172,0.06554373697585707,0.3609125095298648,0.0363856137229987,-0.12410156543837568,-0.06701933545107928,-0.05921488437102966,-0.0445701855146127,0.5211911156289649,0.09065081956798099,-0.11743816264294668,0.28233709911054466,0.13192563405336596,-0.02335444726810658,0.174646137229988,0.23875810546378262,0.13032822490469975,-0.31147962388818706,0.09865447268106732,0.546938096569244,-0.18900533163913907,-0.21073991994917785,-0.10075454510800508,0.06127094409148651,0.3073577852604787,-0.3495311156289672,-0.13050537738246626,0.0070760050825921066,0.28419510419314203,-0.01427959974587035,-0.12163993265565474,-0.10890236340533628,0.17468886277001117,-0.16800148792884212,0.14352261245234996,0.217103693773825,-0.003644163913595929,0.05769395171537487,0.27524288564167765,-0.2986349491740783,-0.02681947013977099,-0.17289523888182812,-0.37465171283354953,0.14649316899618853,-0.01363416899618769,-0.03042621855146124,-0.05942601270647979,0.5376401753494325,-0.20805995933926458,-0.12403333799237823,-0.19774186912325,-0.2313946048284634,-0.2870365133418059,0.08058928970775152,0.2170933519695016,0.16761759212198096,-0.2949440114358304,-0.07021525285895679,0.1188915146124505,-0.04132706734434498,-0.11712500762388907,0.04405377509529822,0.11640646124523447,-0.02479527191867812,-0.03904922744599754,-0.11783358449809563,-0.07764778398983492,-0.009113754764930008,0.058877839898348466,0.13320967979669737,0.08797886912325396,-0.3383400432020388,0.03958051588310067,0.48701614612452077,0.19338920330368373,0.20173538246505657,0.05762976111817059,-0.15346699872935374,0.002305925031766342,-0.07220713087674765,0.11370604320203354,-0.07836429224904776,0.038088994917408,-0.10925104828462594,-0.15467674714104065,0.11529685133418133,-0.058899935196950116,-0.16653464167725812,-0.17564123252858863,-0.2497167420584516,0.17962735959339043,0.04484124269377343,-0.12720891740787857,0.3683341499364693,0.03292885641677254,-0.4188251499364664,0.13745498856416735,0.06393847395171538,-0.015657221092757176,0.004521756035578187,-0.506626355781455,0.09653978907242718,-0.200050573062263,-0.010671449809402659,-0.030579355781448214,0.36044990851333814,-0.19141493773824506,-0.07005708259212139,0.01986277890724273,0.2367601931385049,0.6503771080050738,-0.04395288691232514,0.07968829351969368,0.13110268614993809,-0.2646815412960646,-0.0765916467598465,0.42792383989835253,-0.10179752477763633,-0.04332142185514666,0.302163978398985,0.1589659440914884,-0.2108138144853905,-0.20368809656925257,-0.2914909847522209,0.18837506480305036,0.02227595044472701,0.11228796060990927,0.0750551702668349,0.31470413722998314,-0.05244281575603617,0.14533259085133354,-0.3303238767471446,0.02419162007623894,-0.053341001270647226,-0.4349801613723026,0.15642119949174155
makers 1,0.2269528774943142,0.003923803738318153,-0.13324457817630697,0.12470901237686384,0.01832671659509951,0.04961303915129977,0.25759084162667695,0.14417784162667222,-0.09522131598888803,0.00041678833038608895,0.2826213240717308,-0.04294285855013961,-0.18750903409951988,0.10654457413488237,-0.06953636423339302,0.10396933013387193,0.22414649557969055,-0.04440769664056613,-0.13503193963122273,0.05906381182116786,-0.04813182167213941,-0.0777044912856781,0.22917737206364866,0.11627279616064824,-0.11638186537004254,0.07329307072492883,0.11079298913866759,0.036472629199292346,0.0752784933063923,0.13107466481434724,0.029209632482950696,-0.3024848830512754,0.00731067037130612,0.18300873857034503,0.011197295276584777,-0.0944841697398324,0.13049318540035337,0.08814228416266695,0.2532746557211489,-0.1815247398332901,-0.03576040136398082,-0.11647589997473816,0.35260942283404384,0.007176713564031306,0.10736537938873339,-0.013204332659761795,-0.04795806036877996,-0.2090732998231889,0.0771494379893902,0.20387991563526833,-0.010612643849456765,-0.0215588027279615,0.14583666582470364,-0.21253614650163705,0.062330428391007206,-0.18561855493811888,-0.16157744152563694,0.07395288103056244,-0.11880889467037255,-0.21867555746400164,0.03324550896691089,0.4478488098004587,-0.05755220207123062,-0.11372820459711919,-0.2587405415509025,-0.05592812402121667,-0.18656676635514163,-0.07750780980045535,0.21411615003789503,0.1090345597373097,0.014330025258903721,-0.012203159383682468,0.1450710654205631,-0.0399995193230608,-0.03842453649911604,0.013720993937863234,0.15260564006062138,0.06656089896438339,-0.18250566759282497,-0.10388815635261359,-0.17767495099772138,0.022951581207375994,-0.04224695604950793,0.018265142712806007,0.10106986385450957,-0.23968783127052282,0.13275534579439352,0.36211111720131917,0.16749029451882128,0.0036703238191461442,-0.06144091134124865,0.10242089113412581,0.15562312124274263,0.12252812705228468,-0.07943586764334423,-0.01579770472341508,0.0622506582470326,-0.24854125915635347,-0.02794897549886233,0.1781253773680238,-0.09002311846425953,-0.08285499469563003,0.12226087168476917,-0.11923034958322577,0.2773905844910339,-0.14779902803737996,-0.15874804420308317,0.20201137458954238,-0.10880855721141734,-0.3817839381156872,0.08389403738318067,0.023322879009851066,0.08232147865622608,-0.0024550381409449043,-0.268257603182621,0.02716445794392537,-0.0007139797928768025,-0.04268821065925731,-0.08290308486991663,0.40397255998990167,-0.14861568628441474,-0.05254081409446882,-0.03556978327860574,0.18162933543823948,0.22630867340236613,0.10857266127810238,-0.06184791310937065,0.03047689492296127,-0.24024663248294528,0.0363728416266736,0.3149148378378404,-0.007488778984591981,0.08605067921192298,0.1092335412983065,-0.008471737812578864,-0.0345760411720128,-0.2829850436979103,-0.17004324804243268,0.180071776206113,0.009190550896691418,0.13531080727456285,-0.04715552008082861,0.23845348168729497,-0.16052108411214763,0.09726021646880659,-0.16898355519070637,0.11175455493811541,-0.15621083783784218,-0.12377332685021407,0.10264984187926149
makers 2,0.3382486510067116,-0.015571516778523451,-0.16363261073825466,0.15053744966442947,0.12421465771812076,0.09149087248322144,0.6158040536912762,0.36622299328859076,-0.0025809194630872804,-0.10237657718120806,0.45633710067114097,-0.15812654362416134,-0.33675937583892657,0.2224489395973155,-0.14749570469798648,0.15105071812080534,0.4212182214765099,-0.06624223489932886,-0.08154171140939608,0.039446758389261795,0.03327620134228198,-0.28747471812080533,0.46442547651006666,0.07929490604026841,-0.28362089261744944,0.04605478523489929,0.11166519463087245,-0.07844440939597312,0.0912988322147652,0.21786379865771832,0.04904081208053689,-0.5507488993288585,-0.03971760402684562,0.5385991006711416,-0.08857279194630878,-0.08865726845637598,0.10556838255033547,0.11467077181208044,0.31107947651006734,-0.34876818120805386,0.12999774496644306,-0.05699587248322168,0.38431779865771837,0.03653490604026845,0.2536803355704699,0.11428648322147647,-0.05633812751677855,-0.23832176510067066,0.17917175167785235,0.44071848993288587,-0.048286449664429486,-0.14669140939597294,0.17293444966442917,-0.197695463087248,0.2340822416107383,-0.3018374295302013,-0.407469563758389,0.0765721275167785,-0.2690276979865772,-0.32538339597315424,-0.14755791946308697,0.6464818322147642,0.031214959731543604,-0.12863475838926178,-0.1464827852348995,-0.09270718120805375,-0.44729676510067073,-0.1305813154362416,0.3657433288590605,0.09357190604026853,-0.005086979865771771,-0.04886540939597317,0.30907653020134235,0.07580238255033557,-0.1404280134228186,-0.09336328859060387,0.16018893288590594,0.07442257046979868,-0.34992677181208065,-0.2942505100671138,-0.29188977852348985,0.10992512751677844,-0.21943101342281848,0.12787812751677863,0.20914468456375818,-0.4362375838926178,0.13806918120805367,0.50701255704698,0.289926489932886,0.03087910738255034,0.07000259060402683,0.06278159731543627,0.2873445436241612,0.223123879194631,-0.09335844966442954,0.05012090604026841,-0.02659460402684562,-0.4173061744966447,-0.02510663087248331,0.1919741610738255,-0.13934830201342271,0.08591161073825518,0.18530830201342247,-0.04970705369127516,0.5012834966442945,-0.2733611677852351,-0.2604820939597314,0.42080384563758444,-0.20779919463087232,-0.641231516778524,0.1602790469798659,-0.07372380536912759,0.06415190604026844,-0.05704189261744971,-0.47215579194630913,0.00907161073825502,0.044817375838926234,-0.059863006711409116,0.010061550335570452,0.6658257046979859,-0.2615575100671143,-0.12097389261744944,-0.14693544295302013,0.07193840939597307,0.38846280536912764,0.21912744295302017,-0.07852553020134245,0.015640221476510036,-0.3388068187919459,0.16783431543624153,0.5969038523489931,-0.13458786577181214,0.12206075167785235,0.11046262416107377,-0.05302494630872485,0.047138214765100696,-0.3329620738255036,-0.13621399328859063,0.35316334899328905,-0.120009255033557,0.13756196644295307,-0.3334309127516778,0.449343463087248,-0.14475653691275148,0.20482712751677853,-0.2856745771812082,0.2193346778523489,-0.306824798657718,-0.20908180536912757,0.22968993959731526
metalcore 1,0.04368225286235704,0.10025072634998955,-0.07223965732846555,0.07012779626471746,-0.18856488704831753,0.12700245505481447,0.25899692399516927,0.09382143897685265,0.07071364173772215,-0.02473684660982822,0.40404282062523716,-0.040441946650428856,-0.15249299967518615,0.1596278218432924,-0.06706932691839027,0.11137071189607266,0.09105001802680224,-0.09286014616320938,-0.07506679285424642,0.039063359561508325,0.0038873558262271387,0.026256463093783333,0.08958957068616347,0.08560850734876906,-0.13675668924077353,0.08912504514819151,0.11017984522939105,0.10048489630531399,-0.07881180056840917,0.1921741722289922,0.026495260982535587,-0.045456216402765884,0.03748335858708772,-0.0011411948030821387,0.13561284336177032,-0.10391377547706926,0.06133813300853392,0.07784747218839533,0.24825669654891724,-0.05440962322370775,-0.1748865032886918,-0.11888797263500214,0.5277533526593244,0.0660746479902619,-0.0010922521315451183,-0.05212706861550901,0.0007844553796186803,-0.21929805302478403,0.010363792935445567,0.19088413706861357,-0.029089132196505562,0.06976589208282315,0.14804331652458494,-0.23500773966705155,0.1144536842062452,-0.3239350358911814,-0.04310890166463378,-0.10791476954933174,0.01724800503451125,-0.21097972878602123,-0.035167370523751226,0.19703424725945673,-0.07188084441737096,-0.195308720828251,-0.2262644223304677,-0.06604642135607879,-0.11003410288265879,0.04827313447015333,0.06538504782784829,0.13011409987819728,0.051056606658546104,-0.04648775712545643,-0.002202593747463303,-0.010751758993098541,-0.16152777214776706,0.013201663174989503,0.07558275574503427,-0.02371428558668086,-0.034813795777507865,0.010531488997158564,-0.28063414884284754,0.059204746488029376,-0.07804003142509405,0.0839126367032052,-0.013485623629724436,-0.08497977896873138,0.06708604888348597,0.18783117547705194,0.2090006421437554,-0.06839458473406913,-0.024334965408035047,-0.0012845452699997684,0.15511769395047084,0.22230168087696253,-0.1143488318311064,-0.04129564352415676,-0.14239694794967087,-0.3233134873731554,-0.11952144953307985,0.0631242949248922,0.07856929752335239,-0.20240372090945108,-0.14223854202191727,-0.10607104498579667,0.34184771197726943,-0.05893227641088525,-0.07572340592773433,0.19901141859519925,-0.10934188550547781,-0.2287723446203665,0.019696543158751304,-0.0014489628095804444,0.15017693503857188,0.03860035485180988,-0.19287848095817442,0.11478085943969987,-0.2297315765326864,0.02403389159561203,-0.10002893771823648,0.15488953260250402,-0.13101044904587023,0.09825974397076749,-0.14747990093380728,0.28506509598049135,0.0010805994315861254,0.1505616726756002,-0.09218060609013984,0.04368416142914183,-0.0812021097035966,-0.036740206577341145,0.2499623004466035,-0.17239259017458516,-0.11246299309784623,0.23148205676002978,0.011683337393420519,-0.03923034120990459,-0.14440554640681327,-0.1765351101908233,0.0855870387332602,-0.1411206088510043,0.01644349874137648,0.016881319935038733,0.1781141036134886,-0.22507760633377175,0.13712718993097428,-0.179293796995527,0.029552211287041906,-0.08543806536744668,-0.09808722086885195,0.15111048607388514
metalcore 2,0.048843248525698574,0.24932971861837092,-0.10696955433867003,0.03786627447345936,-0.3452129718618244,0.26017699208087164,0.45788941128901617,0.13532569368153768,0.23913383100251306,-0.15878779545070532,0.5172717280539332,-0.10984638584667229,-0.2296817268744664,0.1784386791912426,-0.12838341954507254,0.18291434422914157,0.137222547767483,-0.11578999898903691,-0.10231875551811519,0.04392881903959591,-0.04835952148273404,0.0734062914911471,0.09352339224937563,0.10260766183657528,-0.13925873108678039,0.1105552278011814,0.13768282931760423,0.1429135095197923,-0.19990895518113735,0.2981303093513151,-0.06435246874473785,0.051980694524007595,0.06743224111204826,-0.1463094390901319,0.16378096192081737,-0.14632713866891647,0.012576890311709719,0.12624068104465258,0.2398153326031954,0.027916086941873457,-0.24417882072453767,-0.16976278011795437,0.8197971893849313,0.09761262948610715,-0.01407321971356344,0.020589998989046978,0.06636762021903181,-0.3985365117101883,-0.046812620724514226,0.33079224128052875,-0.08930530210614591,0.1815309275484278,0.1918511194608404,-0.37149911962929333,0.14715907093513012,-0.5404094112889737,-0.07762914254422233,-0.26399642139850105,0.05251522173546431,-0.19649257438923654,-0.06933869115417415,0.1848786011794298,-0.09122579140690149,-0.2204453802864216,-0.29725951120471256,-0.12339706453244255,-0.19552026133107717,0.2165180827295754,-0.013249595450715078,0.10956806638584957,0.08774619713564068,-0.08457097540016538,-0.05486149283909472,-0.03754384515585892,-0.30150529149113015,0.0029960000000003135,0.09670818736310789,-0.057098376074133046,-0.0320741374894662,-0.001773087784329835,-0.44136653866889203,0.18089923774221797,-0.2218558540859415,0.22639574591407718,-0.1305194854254554,-0.03610557961247246,-0.03618240758213811,0.14999415349621625,0.29138126655433905,-0.05412755939342912,0.024459720471779738,-0.07238596057287927,0.16080039932603718,0.2768448116259237,-0.02556443555181096,-0.00189233765796069,-0.3258787787699958,-0.48517854507164293,-0.21078698668912024,0.0026526382476847387,0.195128880539189,-0.3235274754843957,-0.2803393460825443,-0.06563306352148662,0.4532238950294811,-0.057117047683238775,-0.09138417573714801,0.2548046921651033,-0.07833085981466133,-0.23188543454087399,-0.0008213369839942668,0.04041731777590741,0.28831631929232415,0.1274792844144928,-0.2306867659646164,0.1573363902274499,-0.433888885088422,0.11903845155855602,-0.1373729526537449,0.11227996731255886,-0.15375342999157524,0.20848205105307996,-0.26649811069922286,0.4239064139848378,-0.13647135989891102,0.18071371069922854,-0.13679271120472533,0.05420273192923328,-0.04301378348778764,-0.019794903454086032,0.3301762931760716,-0.32569490564447184,-0.24966880454928575,0.2589845098567909,0.02112412030328537,-0.09795457978096209,-0.06114812030327905,-0.21454421769164694,0.0877625076663835,-0.28251983555181964,-0.04660804313395018,-0.016152705812973768,0.21708255787699746,-0.24120650058973636,0.14670221381634715,-0.2531850459983239,0.04925945812974396,0.006876889132267517,-0.04671292266216928,0.1813443760741239
monstercat,0.03476213078674265,-0.053460983430301305,-0.20712412307108627,0.2024114682519466,0.11227034227168578,0.03132223640273012,0.1732026737920521,0.26188415418667316,0.06312996319251231,0.09024766658234556,0.27861604895014147,-0.09153679053883097,-0.1682060585631067,0.08106586643055397,-0.06237327814317929,0.13171936655704694,0.08896218821148266,-0.09165018504932236,-0.22644658133061737,0.10313450240324183,0.04387407576524119,-0.06537598178598492,0.05219733012901026,0.15428089590185562,-0.24320626081456395,0.2070914946875776,-0.003222254743235175,0.08882995825954722,0.06458049886162595,0.11496526321780995,0.03787388477106699,-0.0547010485707112,0.04252217467746075,0.011512408550466775,-0.0730651353402444,-0.12224431065013239,0.010895008601064878,0.013193969516823268,0.358698130786729,-0.1997341778396128,-0.17626988983051312,-0.06487697394384737,0.35864287338731604,0.153200655704537,0.2040542738426532,-0.2799256372375482,0.06007736491272429,-0.18259012319757562,-0.05369363217809301,0.0881552216038486,-0.18901978598532584,-0.13907640943587415,0.14954221085252675,-0.18577686390083226,0.12803996875790202,-0.05830159903870465,0.022143810903113143,-0.04176753313938811,-0.08690287730837713,-0.12651174373892135,0.028460888186185574,0.28600941651907813,-0.002267097267899042,-0.04783187819377633,-0.2394561797368923,0.024006757778902727,0.029105351505185062,-0.08136488021755349,0.05588971059954761,0.10806415330129061,-0.027136560207437304,-0.04295160144194137,-0.052171164305590476,-0.19700431242094615,-0.0670536925120152,0.1340774564887355,0.21084034505438803,0.013314919428284026,-0.04050327877561168,-0.03882465557804314,-0.15958333910954098,-0.02762788160890497,0.0019156651909940255,0.06317465127750989,-0.1424799050088563,-0.18726557500632032,0.012343748039464343,0.27350192916769916,0.17650118251959676,0.05022492195800591,-0.06073764482671101,-0.0568411631672154,0.12816960827220708,0.07741042170503756,-0.13105133860359686,-0.06318272173033279,-0.02823985011383868,-0.07999893991904583,-0.07729512952188602,0.16393277042752913,0.021874586137111095,-0.03651926941563543,0.0026829704022263484,-0.07006715077156549,0.23735175486973278,-0.16194532835820236,-0.17497654717935196,0.1860245975208823,-0.11155877308373749,-0.21233210738678954,-0.015169774348596019,-4.495446496323528e-05,0.05789188224133365,-0.046212200227675346,-0.22926313053374153,0.14794966974450846,0.04244948229192915,0.1423104868454354,-0.05932437098406836,0.2642128816088948,-0.10724017518339624,0.004539862509486934,0.05916178029344714,0.2656608422716794,0.14070276258536576,0.2066134864659927,-0.10321943296230016,0.020329536175054536,-0.29082012547431874,-0.1494312586642993,0.3353452666329365,0.002709231849228348,-0.07690016076397366,0.12725285175816387,0.13203181216797766,0.051178952947127765,-0.35405095395903174,-0.08614578725019431,0.15864212825701718,0.22161159182900303,0.2580724171515368,0.09706866304072524,0.2264648646597349,-0.12814634328358038,0.07873755489501247,-0.17067063179863537,0.1488363195041661,0.10593764963319126,-0.12025980824688716,0.2568792528459432
otacore,-0.026211726168652586,0.0061964090284146595,-0.05455434211732447,0.06917101879009872,0.2268280059578377,0.015144247479376325,0.21033776489459433,0.3262857335013735,0.0278593208065994,0.06751410632447344,0.36620353803848993,0.02060946150320799,0.0009456280934924761,0.15872306645279347,-0.013982434692942178,0.0836685197066879,-0.09806947066911093,-0.09094709647112698,-0.077479991521539,0.03440342254812061,0.14672215375802014,-0.023371976856095617,0.10156383043079892,0.04298504055912007,-0.41537924266727433,0.1898796826306136,0.009504201420715123,-0.04488454537121809,0.01148134372135697,0.22410900206232845,0.03399005912007168,-0.19470256095325578,0.08689229605866476,0.18397359326305807,0.009254541934006353,-0.20206227956003908,0.00493138015582109,0.019023917277726773,0.4321632394592044,-0.15230922548121048,-0.3447882284601259,-0.03145518629697508,0.44994121539870974,0.14614144454628752,0.10117611480293397,-0.13743971494042168,-0.050667044912926056,0.08576491636113531,0.09010792186068027,0.0891209456920264,-0.10931282080659947,-0.15078250779101832,0.08219793446379377,0.049645664298808435,0.17950076787351196,-0.13235254972502397,-0.09604152062327936,0.023033220439962792,-0.048944049266727296,-0.18498346310724187,-0.05112968354720455,0.09344985815765408,-0.22620619156737112,-0.0063884502749770415,-0.08034446333638912,-0.06241368423464548,0.09157705637030022,-0.039867588221814916,0.07646800756187015,0.1498792266269463,-0.0035600373510541712,-0.10600911846929366,-0.07592460197066907,-0.3551428173693878,-0.05089904949587541,0.18492381347387746,0.14968353414298793,-0.008375645279559824,0.10441395600366807,0.03700849656278671,-0.20754153803849884,-0.006885275893675759,0.08308970692025645,0.034997895967002327,-0.06252317942254783,-0.20041317163152347,0.04742004651695853,0.09281953803849573,0.2958366851512499,0.026848620073328045,0.0011175288725942926,-0.002133880614114503,0.06823763015582149,0.14225457791017365,-0.11531265444546195,-0.06662462167735982,0.06416686274060655,-0.11708511594867028,-0.1453657559578392,0.12427368010999039,-0.0002081963794686837,-0.08180158959670088,-0.13216234280476735,-0.13685647548120985,0.19926993904674578,-0.12800681484876242,-0.09443413542621425,0.14000802841430016,0.06105711778185214,-0.20669798510541168,-0.09776963978002015,-0.11432505774518609,0.07208438840513262,0.09977069706691094,-0.09108997273144091,0.09164052978918587,-0.047602889780017046,-0.0035046425297883257,0.09129206553620495,-0.008290625343721152,-0.024544746333638408,0.03970067781851516,0.05388198900091638,0.14130856920256923,0.19388460678277325,-5.827337305249373e-05,0.09446999312557297,0.11002431416132012,-0.18761062603116216,-0.2173745584326273,0.18524235128323005,-0.06033631461961386,-0.1315710932630617,0.3988070843263115,0.04777991956920417,0.043963724335471875,-0.23397753987167946,-0.06662649816681812,0.10592531003666406,0.03400364550870646,0.15717939482126547,-0.04292691773602252,0.17068492758936923,-0.03950626672777284,0.19464837053161899,-0.15264475229147717,0.05607896791934034,0.0023088132447293234,-0.21655694546287702,0.0790838247021122
political,0.08317380260319522,-0.04567988307205571,-0.12862478800517602,0.12140094887098801,-0.045900797209838896,-0.0344133421544665,0.011061301955990371,0.22566805012225785,-0.057320715518481107,0.059103106932261784,0.2711872573709232,-0.049941639292388144,-0.009680486121098342,0.06849951416654622,-0.060054993599882894,0.0638957982885066,-0.015203908241048027,-0.03477841773334991,-0.16724566496477022,0.05213496569825953,0.019796682079677514,-0.0090471808571812,0.12528706249101224,0.17585603566805608,-0.21738909535452366,0.058141886667624126,0.10096338443836714,0.05678130756508411,0.0571423368330215,0.03779786365597718,0.06656071292966892,-0.12900253739392825,-0.05381952380267439,0.11168217546383187,0.10218250870128115,-0.10585497281749114,0.03828682151589111,0.12573925269667652,0.2676711773335283,-0.20252523989645302,-0.2568115342298185,-0.10577096799941946,0.2305068678987506,0.0694036451172188,0.09267700524953108,-0.1277058283474808,0.013737457212714138,-0.034358248741550336,0.005918365957139687,0.057081522724003554,-0.09628563986768156,-0.09015069941032501,0.11970571479936785,-0.005998238098663068,0.17757056982597264,-0.16742814439810078,-0.008200999352798702,-0.051795200488998445,-0.03617045419243505,-0.17662618128865049,-0.06436811807852837,0.1265508031784838,-0.0788175513447431,-0.047481721846682944,-0.1305215696102411,-0.0050645284769179595,-0.049022789443408425,-0.03121910297712973,0.15803586948079318,0.0822858569682168,0.036658419099669375,-0.13045779231985866,0.07215061225370116,-0.04016433194304737,-0.07596817769308235,0.0836703168416513,0.1897105857903083,0.06214900596864399,0.009352296346900489,0.03451723385588986,-0.14512843283475074,-0.030205838127426284,0.06097463087875741,-0.09209472946929313,0.03353530245937065,-0.09837021221055285,0.12065785783114887,0.1642891666187228,0.16586356601466556,0.0378911730907526,-0.09359351553286359,0.06648154803681916,0.11049841162088844,0.06687256975406401,-0.08880171328922694,-0.09009701948798843,0.014727048036818824,-0.18137735711203948,-0.0027860901049909558,0.10893447950524937,-0.06712777736228935,-0.08473731871134504,-0.04985005055371867,-0.13632457493168842,0.2974014962606027,-0.0757920915432184,-0.05946852480943461,0.06739013404286048,-0.207192504530419,-0.26805248159069145,0.04677719732489623,-0.05456311160650244,0.07868077642743992,-0.07424621055659146,-0.20809918114483872,0.05030918675391874,-0.06113334186682008,-0.05079688839350069,-0.10014399755501154,0.056773663310797536,-0.14293550496188853,0.11249468948655181,0.0584623662447881,0.14525394786423476,0.04548508248238413,0.12935636545375553,-0.04765246052063874,-0.018602760391196325,-0.14728179138500905,-0.10660016007478307,0.06863201531712894,-0.07652963303609908,0.010962866676256976,0.11492886006040623,0.06522941248382323,-0.08247397526247366,-0.11491234474327483,-0.09759789407449722,0.10349540320724669,0.016261363296418363,0.0524660212857771,0.027391710556593483,0.11779065619156327,-0.21659869351359767,0.21995787530562583,-0.05815068538760299,0.016342141953112396,-0.0007314544081682362,-0.19200123809865585,0.0715482781533095
pop 1,0.09615019823902157,-0.06348890039752049,-0.0811055356094658,0.17363693420516677,0.056062041572242066,0.07226948181446521,0.14284794865698264,0.19430256298993412,-0.0852320385630024,0.021861983839208003,0.3508855226065627,-0.0077997253037123855,-0.08132062105732467,0.12612632863989576,-0.03449004201805173,0.075896715198576,0.06417407530555769,-0.17753100330647212,-0.12299669959504402,0.021070357952222233,-0.016794118363862492,-0.0005510821042481775,0.10336641902886207,0.15629525998440244,-0.17603981851617337,0.04421395441542044,0.13837696165989244,0.03278846543077011,0.09189524222611045,0.0688147400527424,0.10883108515066252,-0.14764330345135498,0.013403172344615003,0.09318300679867439,0.03245767474087139,-0.08926369457963838,0.12357977869004794,0.05137027332168679,0.25677397908385896,-0.10385420774975568,-0.1925130534977895,-0.0803357528327838,0.3025047883493803,0.05468629041126157,0.07049564111899351,-0.11082592161088847,0.037499968532897554,-0.07859065917450515,0.023715401084821435,0.07072494427313199,-0.07410346988891357,-0.0419966373667201,0.05210439469480545,-0.12298500776460507,0.07821371601589755,-0.17552958368317506,-0.005472121781772666,0.0495090903889717,0.003735605788160082,-0.13829481777315888,0.061337373147075255,0.23788505550397265,-0.06821805791878625,-0.15085328420701716,-0.20411853386334855,0.0011308851283560997,-0.02392721350820123,-0.021994615558940597,0.1886478850168828,0.09482953274882197,0.05293049868112949,-0.08082316521157404,0.051635524612701926,-0.009553345580861147,-0.07060357896496328,0.037688737303565874,0.16920256774527154,0.0441536613292708,-0.040525927777973175,0.01717670628227394,-0.10185006178253371,-0.0018083036742593413,0.04236050566556445,-0.11239675138389325,-0.004042844076232443,-0.16608610814724709,0.14240970427610003,0.2303919724709392,0.15428044020507112,0.010870852955381516,-0.08517239246572354,0.07675141126426283,0.09275296095404412,0.1515768102685985,-0.15706322810863055,-0.09613533633020106,0.02137225326002116,-0.15983972563806215,-0.04076682486904014,0.16060996058253263,-0.06342579927183505,-0.13548867815879287,0.02367269387376035,-0.19061174592265348,0.318180224839322,-0.10354245060742526,-0.09431500416093316,0.13310459973251104,-0.1509307244863857,-0.25378893758591525,-0.03216521347104561,-0.052423865401050485,0.10880372998477433,-0.022132894267563773,-0.20181752999961544,0.06669521265371267,-0.06128314763903526,-0.07099314462978168,-0.10866690961101158,0.19119237348143056,-0.14162609978823984,0.03324300828472726,-0.010056788386528112,0.18787048315188726,0.12680285236098193,0.05500517223316237,0.011090723780511253,0.009234322064123734,-0.1591392408143644,-0.05701181729018752,0.17068856733663185,-0.06778344566630988,0.04086831537689349,0.18524488720884225,0.060172832596508644,-0.011616157744175768,-0.30011773102503875,-0.17044409893377555,0.10510079901178032,0.038223357692167094,0.14916841561094368,0.050250537949995594,0.13500892198238285,-0.2839296550507118,0.08312920277148084,-0.05933699795668049,0.07225171122339452,-7.350510829431767e-05,-0.14971429825020535,0.08540676282646338
